tree
version=v3
num_class=1
num_tree_per_iteration=1
label_index=0
max_feature_idx=87
objective=binary sigmoid:1
feature_names=GAtotal BWg SGA3rd TempC BEmmolL CRIBII Sex_F Race_Black Race_White VentDaySIMV_CPAP VentDaySIMV_Cannula VentDaySIMV_HFV VentDaySIMV_SIMV VentDay7_CPAP VentDay7_Cannula VentDay7_HFV VentDay7_SIMV Race_Asian Unassigned; k__Archaea; k__Fungi; k__Bacteria; k__Fungi;_p__Basidiomycota; k__Bacteria;_p__Armatimonadetes; k__Fungi;_p__Aphelidiomycota; k__Bacteria;_p__Proteobacteria; k__Bacteria;_p__Deferribacteres; k__Fungi;_p__GS19; k__Bacteria;_p__Chloroflexi; k__Bacteria;_p__WS2; k__Fungi;_p__Blastocladiomycota; k__Bacteria;_p__SBR1093; k__Bacteria;_p__Acidobacteria; k__Bacteria;_p__AC1; k__Bacteria;_p__SC4; k__Bacteria;_p__Caldithrix; k__Bacteria;_p__TM7; k__Fungi;_p__GS01; k__Fungi;_p__Monoblepharomycota; k__Fungi;_p__unidentified; k__Bacteria;_p__Planctomycetes; k__Bacteria;_p__; k__Bacteria;_p__WWE1; k__Bacteria;_p__Synergistetes; k__Bacteria;_p__Tenericutes; k__Bacteria;_p__Firmicutes; k__Bacteria;_p__GN04; k__Bacteria;_p__Bacteroidetes; k__Bacteria;_p__Nitrospirae; k__Bacteria;_p__GN02; k__Bacteria;_p__WS3; k__Bacteria;_p__OP8; k__Bacteria;_p__OD1; k__Bacteria;_p__TM6; k__Fungi;_p__Ascomycota; k__Bacteria;_p__NKB19; k__Bacteria;_p__WS4; k__Bacteria;_p__FCPU426; k__Bacteria;_p__KSB3; k__Bacteria;_p__SAR406; k__Fungi;_p__Glomeromycota; k__Bacteria;_p__Cyanobacteria; k__Bacteria;_p__Elusimicrobia; k__Bacteria;_p__GOUTA4; k__Bacteria;_p__BRC1; k__Bacteria;_p__Spirochaetes; k__Bacteria;_p__TPD-58; k__Bacteria;_p__NC10; k__Bacteria;_p__Verrucomicrobia; k__Archaea;_p__Euryarchaeota; k__Bacteria;_p__1Caldithrix2; k__Fungi;_p__Chytridiomycota; k__Bacteria;_p__Gemmatimonadetes; k__Bacteria;_p__SR1; k__Fungi;_p__Entomophthoromycota; k__Bacteria;_p__Fibrobacteres; k__Fungi;_p__Mortierellomycota; k__Bacteria;_p__WS6; k__Bacteria;_p__Fusobacteria; k__Bacteria;_p__Chlorobi; k__Bacteria;_p__1Thermi2; k__Bacteria;_p__Actinobacteria; k__Fungi;_p__Rozellomycota; k__Fungi;_p__Mucoromycota; k__Bacteria;_p__LCP-89; k__Bacteria;_p__Hyd24-12; k__Archaea;_p__Crenarchaeota; k__Bacteria;_p__Chlamydiae;
feature_infos=[23.857142857142858:33.571428571428569] [420:1480] none [35.5:37.799999999999997] [-28:3] [1:16] [0:1] none none none none none [0:1] none none none none none none none [0:181] [0:676] [0:24] none none [0:240] none none [0:38] none none none [0:21] none none none none none none [0:1] none [0:364] none none none none none none none none none none none none [0:152] none none none none none none none none none none none none none none none none [0:4] none none none none [0:4] none none none none none [0:3] [0:6] none none none none
tree_sizes=344 349 343 343 342 343 343 343 343 343 344 344 346 345 344 344 343 343 344 344 344 344 343 345 346 344 344 344 340 344 350 350 344 344 349 342 346 342 344 344 343 345 344 343 350 344 345 343 345 343 345 344 345 350 345 345 344 344 344 345 347 345 350 350 345 345 343 344 346 346 345 349 344 345 345 345 348 345 345 345 346 346 345 345 344 344 346 345 350 345 350 344 348 350 345 345 345 350 345 345

Tree=0
num_leaves=2
num_cat=0
split_feature=0
split_gain=7.26568
threshold=28.214285714285719
decision_type=2
left_child=-1
right_child=-2
leaf_value=0.071143686641870624 0.057933355633271698
leaf_weight=7.741935521364212 7.741935521364212
leaf_count=31 31
internal_value=0.0645385
internal_weight=0
internal_count=62
is_linear=0
shrinkage=1


Tree=1
num_leaves=2
num_cat=0
split_feature=71
split_gain=4.86742
threshold=1.0000000180025095e-35
decision_type=2
left_child=-1
right_child=-2
leaf_value=-0.0054062898145333773 0.0054062343892271334
leaf_weight=7.7417982369661331 7.7419046610593796
leaf_count=31 31
internal_value=0
internal_weight=0
internal_count=62
is_linear=0
shrinkage=0.01


Tree=2
num_leaves=2
num_cat=0
split_feature=4
split_gain=3.335
threshold=-6.4999999999999991
decision_type=8
left_child=-1
right_child=-2
leaf_value=0.0057160321188822315 -0.0035034771332093286
leaf_weight=5.7435305714607239 9.7400682717561704
leaf_count=23 39
internal_value=0
internal_weight=0
internal_count=62
is_linear=0
shrinkage=0.01


Tree=3
num_leaves=2
num_cat=0
split_feature=5
split_gain=14.0016
threshold=7.5000000000000009
decision_type=2
left_child=-1
right_child=-2
leaf_value=-0.012491027005887473 0.0067313646312476029
leaf_weight=5.2461355328559884 10.237374663352965
leaf_count=21 41
internal_value=0
internal_weight=0
internal_count=62
is_linear=0
shrinkage=0.01


Tree=4
num_leaves=2
num_cat=0
split_feature=5
split_gain=13.745
threshold=7.5000000000000009
decision_type=2
left_child=-1
right_child=-2
leaf_value=-0.012375306965840913 0.0066692492520692608
leaf_weight=5.2477006763219842 10.234855234622954
leaf_count=21 41
internal_value=0
internal_weight=0
internal_count=62
is_linear=0
shrinkage=0.01


Tree=5
num_leaves=2
num_cat=0
split_feature=1
split_gain=15.3217
threshold=1115.0000000000002
decision_type=2
left_child=-1
right_child=-2
leaf_value=0.0072745099134527268 -0.012647003073598412
leaf_weight=9.9830167293548566 5.4979629963636407
leaf_count=40 22
internal_value=0
internal_weight=0
internal_count=62
is_linear=0
shrinkage=0.01


Tree=6
num_leaves=2
num_cat=0
split_feature=1
split_gain=15.0415
threshold=1115.0000000000002
decision_type=2
left_child=-1
right_child=-2
leaf_value=0.0072079027476883361 -0.012530622801960245
leaf_weight=9.9799357652664167 5.4989628195762643
leaf_count=40 22
internal_value=0
internal_weight=0
internal_count=62
is_linear=0
shrinkage=0.01


Tree=7
num_leaves=2
num_cat=0
split_feature=20
split_gain=6.07936
threshold=79.000000000000014
decision_type=2
left_child=-1
right_child=-2
leaf_value=-0.00520069118572481 0.0070248713335145955
leaf_weight=8.9892929792404157 6.4868514537811288
leaf_count=36 26
internal_value=0
internal_weight=0
internal_count=62
is_linear=0
shrinkage=0.01


Tree=8
num_leaves=2
num_cat=0
split_feature=5
split_gain=13.0237
threshold=7.5000000000000009
decision_type=2
left_child=-1
right_child=-2
leaf_value=-0.012046612841905748 0.0064922033799658533
leaf_weight=5.2496915161609659 10.225691810250281
leaf_count=21 41
internal_value=0
internal_weight=0
internal_count=62
is_linear=0
shrinkage=0.01


Tree=9
num_leaves=2
num_cat=0
split_feature=5
split_gain=12.7876
threshold=7.5000000000000009
decision_type=2
left_child=-1
right_child=-2
leaf_value=-0.011938259030540813 0.0064327584524657821
leaf_weight=5.2496737390756616 10.222406521439551
leaf_count=21 41
internal_value=0
internal_weight=0
internal_count=62
is_linear=0
shrinkage=0.01


Tree=10
num_leaves=2
num_cat=0
split_feature=54
split_gain=5.04219
threshold=69.500000000000014
decision_type=2
left_child=-1
right_child=-2
leaf_value=-0.004317026754512527 0.007026156643540598
leaf_weight=9.7354671955108625 5.7327541410923013
leaf_count=39 23
internal_value=0
internal_weight=0
internal_count=62
is_linear=0
shrinkage=0.01


Tree=11
num_leaves=2
num_cat=0
split_feature=5
split_gain=12.5181
threshold=7.5000000000000009
decision_type=2
left_child=-1
right_child=-2
leaf_value=-0.011812652970961743 0.0063656471932576966
leaf_weight=5.2490791529417047 10.218042835593222
leaf_count=21 41
internal_value=0
internal_weight=0
internal_count=62
is_linear=0
shrinkage=0.01


Tree=12
num_leaves=2
num_cat=0
split_feature=4
split_gain=2.92014
threshold=-6.4999999999999991
decision_type=8
left_child=-1
right_child=-2
leaf_value=0.0053455477519354514 -0.0032885019283355839
leaf_weight=5.7294678390026093 9.7331645339727384
leaf_count=23 39
internal_value=0
internal_weight=0
internal_count=62
is_linear=0
shrinkage=0.01


Tree=13
num_leaves=2
num_cat=0
split_feature=0
split_gain=6.24447
threshold=28.214285714285719
decision_type=2
left_child=-1
right_child=-2
leaf_value=0.0061240808523995325 -0.0061309484419191616
leaf_weight=7.7220997363328934 7.7394470870494843
leaf_count=31 31
internal_value=0
internal_weight=0
internal_count=62
is_linear=0
shrinkage=0.01


Tree=14
num_leaves=2
num_cat=0
split_feature=0
split_gain=6.12988
threshold=28.214285714285719
decision_type=2
left_child=-1
right_child=-2
leaf_value=0.0060692489748177805 -0.0060737690863566039
leaf_weight=7.719244047999382 7.7396891266107559
leaf_count=31 31
internal_value=0
internal_weight=0
internal_count=62
is_linear=0
shrinkage=0.01


Tree=15
num_leaves=2
num_cat=0
split_feature=1
split_gain=13.8279
threshold=1115.0000000000002
decision_type=2
left_child=-1
right_child=-2
leaf_value=0.0069158094769476569 -0.012019181040931881
leaf_weight=9.9600792527198774 5.4959799647331247
leaf_count=40 22
internal_value=0
internal_weight=0
internal_count=62
is_linear=0
shrinkage=0.01


Tree=16
num_leaves=2
num_cat=0
split_feature=0
split_gain=5.9064
threshold=28.214285714285719
decision_type=2
left_child=-1
right_child=-2
leaf_value=0.005958859810991121 -0.0059637953499828127
leaf_weight=7.7128736674785614 7.7375648468732834
leaf_count=31 31
internal_value=0
internal_weight=0
internal_count=62
is_linear=0
shrinkage=0.01


Tree=17
num_leaves=2
num_cat=0
split_feature=0
split_gain=5.79828
threshold=28.214285714285719
decision_type=2
left_child=-1
right_child=-2
leaf_value=0.005905757499285175 -0.0059084767654318006
leaf_weight=7.709677517414093 7.7373853176832199
leaf_count=31 31
internal_value=0
internal_weight=0
internal_count=62
is_linear=0
shrinkage=0.01


Tree=18
num_leaves=2
num_cat=0
split_feature=1
split_gain=13.3629
threshold=1115.0000000000002
decision_type=2
left_child=-1
right_child=-2
leaf_value=0.0068006848994503081 -0.011819340144369949
leaf_weight=9.9507042765617353 5.4927449226379403
leaf_count=40 22
internal_value=0
internal_weight=0
internal_count=62
is_linear=0
shrinkage=0.01


Tree=19
num_leaves=2
num_cat=0
split_feature=5
split_gain=11.4359
threshold=7.5000000000000009
decision_type=2
left_child=-1
right_child=-2
leaf_value=-0.011301332750797827 0.0060875462219873288
leaf_weight=5.2409566938877115 10.195805341005324
leaf_count=21 41
internal_value=0
internal_weight=0
internal_count=62
is_linear=0
shrinkage=0.01


Tree=20
num_leaves=2
num_cat=0
split_feature=5
split_gain=11.2322
threshold=7.5000000000000009
decision_type=2
left_child=-1
right_child=-2
leaf_value=-0.011204521833525643 0.0060324710370048698
leaf_weight=5.2384440302848825 10.191363975405691
leaf_count=21 41
internal_value=0
internal_weight=0
internal_count=62
is_linear=0
shrinkage=0.01


Tree=21
num_leaves=2
num_cat=0
split_feature=0
split_gain=5.3831
threshold=28.214285714285719
decision_type=2
left_child=-1
right_child=-2
leaf_value=0.0056908215061238542 -0.0057010162562860919
leaf_weight=7.6950961798429489 7.7273080199956894
leaf_count=31 31
internal_value=0
internal_weight=0
internal_count=62
is_linear=0
shrinkage=0.01


Tree=22
num_leaves=2
num_cat=0
split_feature=1
split_gain=12.6699
threshold=1115.0000000000002
decision_type=2
left_child=-1
right_child=-2
leaf_value=0.0066222487964900482 -0.011522199291723902
leaf_weight=9.9340939521789533 5.483806014060975
leaf_count=40 22
internal_value=0
internal_weight=0
internal_count=62
is_linear=0
shrinkage=0.01


Tree=23
num_leaves=2
num_cat=0
split_feature=0
split_gain=5.18621
threshold=28.214285714285719
decision_type=2
left_child=-1
right_child=-2
leaf_value=0.0055873124039952527 -0.0055985423942585544
leaf_weight=7.6871043294668198 7.7225535959005356
leaf_count=31 31
internal_value=0
internal_weight=0
internal_count=62
is_linear=0
shrinkage=0.01


Tree=24
num_leaves=2
num_cat=0
split_feature=20
split_gain=5.57158
threshold=79.000000000000014
decision_type=2
left_child=-1
right_child=-2
leaf_value=-0.0049987529512390298 0.0067307796040908391
leaf_weight=8.9506916701793653 6.4540570825338373
leaf_count=36 26
internal_value=0
internal_weight=0
internal_count=62
is_linear=0
shrinkage=0.01


Tree=25
num_leaves=2
num_cat=0
split_feature=1
split_gain=12.3164
threshold=1115.0000000000002
decision_type=2
left_child=-1
right_child=-2
leaf_value=0.0065313396262657647 -0.011366398796092773
leaf_weight=9.9245123416185361 5.4782294631004342
leaf_count=40 22
internal_value=0
internal_weight=0
internal_count=62
is_linear=0
shrinkage=0.01


Tree=26
num_leaves=2
num_cat=0
split_feature=0
split_gain=4.99722
threshold=28.214285714285719
decision_type=2
left_child=-1
right_child=-2
leaf_value=0.0054869155685438355 -0.0054985191164511702
leaf_weight=7.6782230883836746 7.715502917766571
leaf_count=31 31
internal_value=0
internal_weight=0
internal_count=62
is_linear=0
shrinkage=0.01


Tree=27
num_leaves=2
num_cat=0
split_feature=5
split_gain=10.3749
threshold=7.5000000000000009
decision_type=2
left_child=-1
right_child=-2
leaf_value=-0.010787773764311521 0.0057998678124422292
leaf_weight=5.2226485908031473 10.165789082646368
leaf_count=21 41
internal_value=0
internal_weight=0
internal_count=62
is_linear=0
shrinkage=0.01


Tree=28
num_leaves=2
num_cat=0
split_feature=1
split_gain=11.8451
threshold=1115.0000000000002
decision_type=2
left_child=-1
right_child=-2
leaf_value=0.00640564093189714 -0.011159392307836838
leaf_weight=9.91052597761154 5.4686678498983392
leaf_count=40 22
internal_value=0
internal_weight=0
internal_count=62
is_linear=0
shrinkage=0.01


Tree=29
num_leaves=2
num_cat=0
split_feature=5
split_gain=10.0342
threshold=7.5000000000000009
decision_type=2
left_child=-1
right_child=-2
leaf_value=-0.010620994478468006 0.0057025417333934104
leaf_weight=5.2142713665962228 10.154896855354307
leaf_count=21 41
internal_value=0
internal_weight=0
internal_count=62
is_linear=0
shrinkage=0.01


Tree=30
num_leaves=2
num_cat=0
split_feature=71
split_gain=4.14058
threshold=1.0000000180025095e-35
decision_type=2
left_child=-1
right_child=-2
leaf_value=-0.0050245193973346555 0.0049854574242338395
leaf_weight=7.6847329288721085 7.6744882762432098
leaf_count=31 31
internal_value=0
internal_weight=0
internal_count=62
is_linear=0
shrinkage=0.01


Tree=31
num_leaves=2
num_cat=0
split_feature=71
split_gain=4.06445
threshold=1.0000000180025095e-35
decision_type=2
left_child=-1
right_child=-2
leaf_value=-0.0049776232551720931 0.0049404649731218091
leaf_weight=7.6850706934928894 7.6722733229398727
leaf_count=31 31
internal_value=0
internal_weight=0
internal_count=62
is_linear=0
shrinkage=0.01


Tree=32
num_leaves=2
num_cat=0
split_feature=1
split_gain=11.4165
threshold=1115.0000000000002
decision_type=2
left_child=-1
right_child=-2
leaf_value=0.0062889627614012133 -0.010968703045662829
leaf_weight=9.8969259560108167 5.4583735764026651
leaf_count=40 22
internal_value=0
internal_weight=0
internal_count=62
is_linear=0
shrinkage=0.01


Tree=33
num_leaves=2
num_cat=0
split_feature=0
split_gain=4.55714
threshold=28.214285714285719
decision_type=2
left_child=-1
right_child=-2
leaf_value=0.005240672870206734 -0.0052655049675693431
leaf_weight=7.6545139700174332 7.6898660659790039
leaf_count=31 31
internal_value=0
internal_weight=0
internal_count=62
is_linear=0
shrinkage=0.01


Tree=34
num_leaves=2
num_cat=0
split_feature=12
split_gain=2.0798
threshold=1.0000000180025095e-35
decision_type=2
left_child=-1
right_child=-2
leaf_value=-0.0027143269649576398 0.0046583604824110185
leaf_weight=9.8980275094509107 5.4402270913124093
leaf_count=40 22
internal_value=0
internal_weight=0
internal_count=62
is_linear=0
shrinkage=0.01


Tree=35
num_leaves=2
num_cat=0
split_feature=1
split_gain=11.109
threshold=1115.0000000000002
decision_type=2
left_child=-1
right_child=-2
leaf_value=0.0062054529553766556 -0.010828415794409995
leaf_weight=9.8866837471723539 5.450391337275506
leaf_count=40 22
internal_value=0
internal_weight=0
internal_count=62
is_linear=0
shrinkage=0.01


Tree=36
num_leaves=2
num_cat=0
split_feature=20
split_gain=5.16531
threshold=79.000000000000014
decision_type=2
left_child=-1
right_child=-2
leaf_value=-0.0048306911769237237 0.0064905018234127834
leaf_weight=8.9068544358015043 6.4186749160289773
leaf_count=36 26
internal_value=0
internal_weight=0
internal_count=62
is_linear=0
shrinkage=0.01


Tree=37
num_leaves=2
num_cat=0
split_feature=5
split_gain=9.3944
threshold=7.5000000000000009
decision_type=2
left_child=-1
right_child=-2
leaf_value=-0.010299818353444548 0.0055196775640012265
leaf_weight=5.193665325641633 10.128913089632986
leaf_count=21 41
internal_value=0
internal_weight=0
internal_count=62
is_linear=0
shrinkage=0.01


Tree=38
num_leaves=2
num_cat=0
split_feature=5
split_gain=9.23077
threshold=7.5000000000000009
decision_type=2
left_child=-1
right_child=-2
leaf_value=-0.010216959342117389 0.0054704460544217392
leaf_weight=5.1881984323263177 10.123160317540167
leaf_count=21 41
internal_value=0
internal_weight=0
internal_count=62
is_linear=0
shrinkage=0.01


Tree=39
num_leaves=2
num_cat=0
split_feature=1
split_gain=10.6024
threshold=1115.0000000000002
decision_type=2
left_child=-1
right_child=-2
leaf_value=0.0060621485631519242 -0.010599739952638213
leaf_weight=9.8667526692152006 5.4330727607011804
leaf_count=40 22
internal_value=0
internal_weight=0
internal_count=62
is_linear=0
shrinkage=0.01


Tree=40
num_leaves=2
num_cat=0
split_feature=0
split_gain=4.14422
threshold=28.214285714285719
decision_type=2
left_child=-1
right_child=-2
leaf_value=0.0049999449308988173 -0.0050362630174640502
leaf_weight=7.6284023821353912 7.65887351334095
leaf_count=31 31
internal_value=0
internal_weight=0
internal_count=62
is_linear=0
shrinkage=0.01


Tree=41
num_leaves=2
num_cat=0
split_feature=0
split_gain=4.06929
threshold=28.214285714285719
decision_type=2
left_child=-1
right_child=-2
leaf_value=0.0049563558510236768 -0.0049907785912213449
leaf_weight=7.6237036436796188 7.6567287445068359
leaf_count=31 31
internal_value=0
internal_weight=0
internal_count=62
is_linear=0
shrinkage=0.01


Tree=42
num_leaves=2
num_cat=0
split_feature=1
split_gain=10.2655
threshold=1115.0000000000002
decision_type=2
left_child=-1
right_child=-2
leaf_value=0.0059667021957071596 -0.010442866521103445
leaf_weight=9.8524072766303998 5.4210601449012765
leaf_count=40 22
internal_value=0
internal_weight=0
internal_count=62
is_linear=0
shrinkage=0.01


Tree=43
num_leaves=2
num_cat=0
split_feature=1
split_gain=10.0874
threshold=1115.0000000000002
decision_type=2
left_child=-1
right_child=-2
leaf_value=0.005914221790652794 -0.010359781837630156
leaf_weight=9.8456590920686704 5.4146142154932031
leaf_count=40 22
internal_value=0
internal_weight=0
internal_count=62
is_linear=0
shrinkage=0.01


Tree=44
num_leaves=2
num_cat=0
split_feature=12
split_gain=1.91453
threshold=1.0000000180025095e-35
decision_type=2
left_child=-1
right_child=-2
leaf_value=-0.0026190407225714124 0.0044738534418896341
leaf_weight=9.8384351432323438 5.4083116203546533
leaf_count=40 22
internal_value=0
internal_weight=0
internal_count=62
is_linear=0
shrinkage=0.01


Tree=45
num_leaves=2
num_cat=0
split_feature=5
split_gain=8.50379
threshold=7.5000000000000009
decision_type=2
left_child=-1
right_child=-2
leaf_value=-0.009841367636094207 0.0052506387106923003
leaf_weight=5.1572138220071801 10.087990865111349
leaf_count=21 41
internal_value=0
internal_weight=0
internal_count=62
is_linear=0
shrinkage=0.01


Tree=46
num_leaves=2
num_cat=0
split_feature=5
split_gain=8.35706
threshold=7.5000000000000009
decision_type=2
left_child=-1
right_child=-2
leaf_value=-0.0097643038326287925 0.0052040679986484085
leaf_weight=5.1505866199731836 10.081750229001043
leaf_count=21 41
internal_value=0
internal_weight=0
internal_count=62
is_linear=0
shrinkage=0.01


Tree=47
num_leaves=2
num_cat=0
split_feature=1
split_gain=9.63784
threshold=1115.0000000000002
decision_type=2
left_child=-1
right_child=-2
leaf_value=0.0057803356387759255 -0.010149857737263757
leaf_weight=9.824966683983801 5.3942468315362939
leaf_count=40 22
internal_value=0
internal_weight=0
internal_count=62
is_linear=0
shrinkage=0.01


Tree=48
num_leaves=2
num_cat=0
split_feature=0
split_gain=3.62684
threshold=28.214285714285719
decision_type=2
left_child=-1
right_child=-2
leaf_value=0.0046805953004648918 -0.0047317624680128416
leaf_weight=7.5900546461343765 7.6148153990507126
leaf_count=31 31
internal_value=0
internal_weight=0
internal_count=62
is_linear=0
shrinkage=0.01


Tree=49
num_leaves=2
num_cat=0
split_feature=1
split_gain=9.4041
threshold=1115.0000000000002
decision_type=2
left_child=-1
right_child=-2
leaf_value=0.0057102530677746238 -0.010037641168364015
leaf_weight=9.8136990219354612 5.3835395127534875
leaf_count=40 22
internal_value=0
internal_weight=0
internal_count=62
is_linear=0
shrinkage=0.01


Tree=50
num_leaves=2
num_cat=0
split_feature=5
split_gain=7.94714
threshold=8.5000000000000018
decision_type=2
left_child=-1
right_child=-2
leaf_value=-0.0074304338972863062 0.0065365737230324893
leaf_weight=7.1074030548334131 8.0750831663608533
leaf_count=29 33
internal_value=0
internal_weight=0
internal_count=62
is_linear=0
shrinkage=0.01


Tree=51
num_leaves=2
num_cat=0
split_feature=5
split_gain=7.80613
threshold=8.5000000000000018
decision_type=2
left_child=-1
right_child=-2
leaf_value=-0.0073663305119748123 0.0064813027389321607
leaf_weight=7.102674052119256 8.0675317347049695
leaf_count=29 33
internal_value=0
internal_weight=0
internal_count=62
is_linear=0
shrinkage=0.01


Tree=52
num_leaves=2
num_cat=0
split_feature=5
split_gain=7.69483
threshold=7.5000000000000009
decision_type=2
left_child=-1
right_child=-2
leaf_value=-0.0094080311545246317 0.0049935569668655604
leaf_weight=5.1146176010370263 10.043071627616881
leaf_count=21 41
internal_value=0
internal_weight=0
internal_count=62
is_linear=0
shrinkage=0.01


Tree=53
num_leaves=2
num_cat=0
split_feature=71
split_gain=3.63209
threshold=1.0000000180025095e-35
decision_type=2
left_child=-1
right_child=-2
leaf_value=-0.0047522588761095769 0.0046845703707994136
leaf_weight=7.5736620724201202 7.5698100924491882
leaf_count=31 31
internal_value=0
internal_weight=0
internal_count=62
is_linear=0
shrinkage=0.01


Tree=54
num_leaves=2
num_cat=0
split_feature=0
split_gain=3.28305
threshold=28.214285714285719
decision_type=2
left_child=-1
right_child=-2
leaf_value=0.0044575210361811708 -0.0045152385077420138
leaf_weight=7.5597255825996399 7.5807287991046906
leaf_count=31 31
internal_value=0
internal_weight=0
internal_count=62
is_linear=0
shrinkage=0.01


Tree=55
num_leaves=2
num_cat=0
split_feature=5
split_gain=7.48793
threshold=7.5000000000000009
decision_type=2
left_child=-1
right_child=-2
leaf_value=-0.0092937537308349204 0.0049261307361859316
leaf_weight=5.1019473522901544 10.030432283878325
leaf_count=21 41
internal_value=0
internal_weight=0
internal_count=62
is_linear=0
shrinkage=0.01


Tree=56
num_leaves=2
num_cat=0
split_feature=5
split_gain=7.3854
threshold=8.5000000000000018
decision_type=2
left_child=-1
right_child=-2
leaf_value=-0.0071813033423536159 0.0063098115544242177
leaf_weight=7.0758224725723275 8.0420216172933561
leaf_count=29 33
internal_value=0
internal_weight=0
internal_count=62
is_linear=0
shrinkage=0.01


Tree=57
num_leaves=2
num_cat=0
split_feature=5
split_gain=7.2642
threshold=7.5000000000000009
decision_type=2
left_child=-1
right_child=-2
leaf_value=-0.0091687375689400614 0.0048515013372870215
leaf_weight=5.0879371911287317 10.016710102558134
leaf_count=21 41
internal_value=0
internal_weight=0
internal_count=62
is_linear=0
shrinkage=0.01


Tree=58
num_leaves=2
num_cat=0
split_feature=5
split_gain=7.1605
threshold=8.5000000000000018
decision_type=2
left_child=-1
right_child=-2
leaf_value=-0.0070795991302015238 0.0062160242557675752
leaf_weight=7.0618693232536325 8.0279100835323316
leaf_count=29 33
internal_value=0
internal_weight=0
internal_count=62
is_linear=0
shrinkage=0.01


Tree=59
num_leaves=2
num_cat=0
split_feature=5
split_gain=7.04774
threshold=7.5000000000000009
decision_type=2
left_child=-1
right_child=-2
leaf_value=-0.0090462246516035457 0.0047781701432829489
leaf_weight=5.0735058933496484 10.002732709050177
leaf_count=21 41
internal_value=0
internal_weight=0
internal_count=62
is_linear=0
shrinkage=0.01


Tree=60
num_leaves=2
num_cat=0
split_feature=71
split_gain=3.5098
threshold=1.0000000180025095e-35
decision_type=2
left_child=-1
right_child=-2
leaf_value=-0.004687808083786894 0.0046122660488611021
leaf_weight=7.530935525894165 7.5301269143819809
leaf_count=31 31
internal_value=0
internal_weight=0
internal_count=62
is_linear=0
shrinkage=0.01


Tree=61
num_leaves=2
num_cat=0
split_feature=5
split_gain=6.93001
threshold=8.5000000000000018
decision_type=2
left_child=-1
right_child=-2
leaf_value=-0.0069739026472065502 0.0061189535873072375
leaf_weight=7.0457449555397043 8.0120477676391584
leaf_count=29 33
internal_value=0
internal_weight=0
internal_count=62
is_linear=0
shrinkage=0.01


Tree=62
num_leaves=2
num_cat=0
split_feature=83
split_gain=2.16295
threshold=1.0000000180025095e-35
decision_type=2
left_child=-1
right_child=-2
leaf_value=-0.0034758397140966096 0.0038419645119700313
leaf_weight=8.0108998268842679 7.0330152064561853
leaf_count=33 29
internal_value=0
internal_weight=0
internal_count=62
is_linear=0
shrinkage=0.01


Tree=63
num_leaves=2
num_cat=0
split_feature=71
split_gain=3.41052
threshold=1.0000000180025095e-35
decision_type=2
left_child=-1
right_child=-2
leaf_value=-0.0046223011191199419 0.0045507242610157584
leaf_weight=7.5232747346162796 7.5186082720756531
leaf_count=31 31
internal_value=0
internal_weight=0
internal_count=62
is_linear=0
shrinkage=0.01


Tree=64
num_leaves=2
num_cat=0
split_feature=5
split_gain=6.79993
threshold=7.5000000000000009
decision_type=2
left_child=-1
right_child=-2
leaf_value=-0.0089035704784700791 0.0046946266817662011
leaf_weight=5.0546421408653268 9.9837859570980054
leaf_count=21 41
internal_value=0
internal_weight=0
internal_count=62
is_linear=0
shrinkage=0.01


Tree=65
num_leaves=2
num_cat=0
split_feature=5
split_gain=6.70168
threshold=8.5000000000000018
decision_type=2
left_child=-1
right_child=-2
leaf_value=-0.0068675796083431089 0.0060217696254739918
leaf_weight=7.0278705805540085 7.9950491338968277
leaf_count=29 33
internal_value=0
internal_weight=0
internal_count=62
is_linear=0
shrinkage=0.01


Tree=66
num_leaves=2
num_cat=0
split_feature=5
split_gain=6.59838
threshold=7.5000000000000009
decision_type=2
left_child=-1
right_child=-2
leaf_value=-0.008786199644161748 0.004623963920788266
leaf_weight=5.0393836647272119 9.9693414121866208
leaf_count=21 41
internal_value=0
internal_weight=0
internal_count=62
is_linear=0
shrinkage=0.01


Tree=67
num_leaves=2
num_cat=0
split_feature=5
split_gain=6.49873
threshold=8.5000000000000018
decision_type=2
left_child=-1
right_child=-2
leaf_value=-0.0067716354129343185 0.005932884329435846
leaf_weight=7.0126942247152328 7.9802639335393906
leaf_count=29 33
internal_value=0
internal_weight=0
internal_count=62
is_linear=0
shrinkage=0.01


Tree=68
num_leaves=2
num_cat=0
split_feature=20
split_gain=4.38526
threshold=79.000000000000014
decision_type=2
left_child=-1
right_child=-2
leaf_value=-0.0045189037300217691 0.0060224656166397274
leaf_weight=8.7007104605436307 6.2777831852436075
leaf_count=36 26
internal_value=0
internal_weight=0
internal_count=62
is_linear=0
shrinkage=0.01


Tree=69
num_leaves=2
num_cat=0
split_feature=20
split_gain=4.30612
threshold=79.000000000000014
decision_type=2
left_child=-1
right_child=-2
leaf_value=-0.0044768622068751254 0.0059708647720066454
leaf_weight=8.7000883817672712 6.2737907022237787
leaf_count=36 26
internal_value=0
internal_weight=0
internal_count=62
is_linear=0
shrinkage=0.01


Tree=70
num_leaves=2
num_cat=0
split_feature=5
split_gain=6.35828
threshold=7.5000000000000009
decision_type=2
left_child=-1
right_child=-2
leaf_value=-0.0086429974344301459 0.0045406311841089961
leaf_weight=5.0191200673580179 9.9500047713518125
leaf_count=21 41
internal_value=0
internal_weight=0
internal_count=62
is_linear=0
shrinkage=0.01


Tree=71
num_leaves=2
num_cat=0
split_feature=71
split_gain=3.19744
threshold=1.0000000180025095e-35
decision_type=2
left_child=-1
right_child=-2
leaf_value=-0.0044891745464819876 0.004417064180580365
leaf_weight=7.4807166308164597 7.4723543524742126
leaf_count=31 31
internal_value=0
internal_weight=0
internal_count=62
is_linear=0
shrinkage=0.01


Tree=72
num_leaves=2
num_cat=0
split_feature=5
split_gain=6.25673
threshold=8.5000000000000018
decision_type=2
left_child=-1
right_child=-2
leaf_value=-0.0066545654461340042 0.005828247438990462
leaf_weight=6.9901930838823318 7.9590407609939575
leaf_count=29 33
internal_value=0
internal_weight=0
internal_count=62
is_linear=0
shrinkage=0.01


Tree=73
num_leaves=2
num_cat=0
split_feature=21
split_gain=1.9854
threshold=139.50000000000003
decision_type=2
left_child=-1
right_child=-2
leaf_value=0.0032657184053958531 -0.0037692509085809605
leaf_weight=7.9566631317138672 6.9778092056512833
leaf_count=33 29
internal_value=0
internal_weight=0
internal_count=62
is_linear=0
shrinkage=0.01


Tree=74
num_leaves=2
num_cat=0
split_feature=3
split_gain=1.67186
threshold=36.850000000000001
decision_type=2
left_child=-1
right_child=-2
leaf_value=0.0039455161844653228 -0.0026434849247714016
leaf_weight=5.7842465639114389 9.1513913422822935
leaf_count=24 38
internal_value=0
internal_weight=0
internal_count=62
is_linear=0
shrinkage=0.01


Tree=75
num_leaves=2
num_cat=0
split_feature=5
split_gain=6.15925
threshold=7.5000000000000009
decision_type=2
left_child=-1
right_child=-2
leaf_value=-0.0085230333250080597 0.0044700088403341193
leaf_weight=5.0010093897581109 9.9328317344188672
leaf_count=21 41
internal_value=0
internal_weight=0
internal_count=62
is_linear=0
shrinkage=0.01


Tree=76
num_leaves=2
num_cat=0
split_feature=71
split_gain=3.10437
threshold=1.0000000180025095e-35
decision_type=2
left_child=-1
right_child=-2
leaf_value=-0.0044285485837034259 0.00435679728077395
leaf_weight=7.4628008455038071 7.4547636955976486
leaf_count=31 31
internal_value=0
internal_weight=0
internal_count=62
is_linear=0
shrinkage=0.01


Tree=77
num_leaves=2
num_cat=0
split_feature=5
split_gain=6.06387
threshold=8.5000000000000018
decision_type=2
left_child=-1
right_child=-2
leaf_value=-0.0065604958231607379 0.0057422424886256138
leaf_weight=6.9712488800287247 7.9423215538263321
leaf_count=29 33
internal_value=0
internal_weight=0
internal_count=62
is_linear=0
shrinkage=0.01


Tree=78
num_leaves=2
num_cat=0
split_feature=5
split_gain=5.96713
threshold=7.5000000000000009
decision_type=2
left_child=-1
right_child=-2
leaf_value=-0.0084062235733395971 0.0043997128384485554
leaf_weight=4.9829652160406122 9.9156191200017911
leaf_count=21 41
internal_value=0
internal_weight=0
internal_count=62
is_linear=0
shrinkage=0.01


Tree=79
num_leaves=2
num_cat=0
split_feature=5
split_gain=5.88122
threshold=8.5000000000000018
decision_type=2
left_child=-1
right_child=-2
leaf_value=-0.0064700083622071126 0.0056580079978142909
leaf_weight=6.9550652652978897 7.9270419031381607
leaf_count=29 33
internal_value=0
internal_weight=0
internal_count=62
is_linear=0
shrinkage=0.01


Tree=80
num_leaves=2
num_cat=0
split_feature=20
split_gain=4.02739
threshold=79.000000000000014
decision_type=2
left_child=-1
right_child=-2
leaf_value=-0.0043452679455047022 0.0057924380887635143
leaf_weight=8.6393901556730253 6.2275281846523294
leaf_count=36 26
internal_value=0
internal_weight=0
internal_count=62
is_linear=0
shrinkage=0.01


Tree=81
num_leaves=2
num_cat=0
split_feature=54
split_gain=3.19725
threshold=69.500000000000014
decision_type=2
left_child=-1
right_child=-2
leaf_value=-0.0035276521406073921 0.0056765716713713891
leaf_weight=9.3681921511888486 5.4934870600700387
leaf_count=39 23
internal_value=0
internal_weight=0
internal_count=62
is_linear=0
shrinkage=0.01


Tree=82
num_leaves=2
num_cat=0
split_feature=0
split_gain=2.32491
threshold=28.214285714285719
decision_type=2
left_child=-1
right_child=-2
leaf_value=0.0037657154014533096 -0.0038514593688470577
leaf_weight=7.4413920342922211 7.4153608679771423
leaf_count=31 31
internal_value=0
internal_weight=0
internal_count=62
is_linear=0
shrinkage=0.01


Tree=83
num_leaves=2
num_cat=0
split_feature=5
split_gain=5.71002
threshold=7.5000000000000009
decision_type=2
left_child=-1
right_child=-2
leaf_value=-0.0082449501083236773 0.0043062724524301739
leaf_weight=4.9571263939142236 9.8907768428325635
leaf_count=21 41
internal_value=0
internal_weight=0
internal_count=62
is_linear=0
shrinkage=0.01


Tree=84
num_leaves=2
num_cat=0
split_feature=1
split_gain=7.00711
threshold=1115.0000000000002
decision_type=2
left_child=-1
right_child=-2
leaf_value=0.0049446899136582675 -0.0088269003519825546
leaf_weight=9.6273569762706739 5.203825071454049
leaf_count=40 22
internal_value=0
internal_weight=0
internal_count=62
is_linear=0
shrinkage=0.01


Tree=85
num_leaves=2
num_cat=0
split_feature=20
split_gain=3.8671
threshold=79.000000000000014
decision_type=2
left_child=-1
right_child=-2
leaf_value=-0.0042647330049887409 0.0056862412875776118
leaf_weight=8.6100762188434583 6.202927142381669
leaf_count=36 26
internal_value=0
internal_weight=0
internal_count=62
is_linear=0
shrinkage=0.01


Tree=86
num_leaves=2
num_cat=0
split_feature=54
split_gain=3.05083
threshold=69.500000000000014
decision_type=2
left_child=-1
right_child=-2
leaf_value=-0.0034511799657289135 0.0055558300316476232
leaf_weight=9.3373178243637067 5.4701920598745355
leaf_count=39 23
internal_value=0
internal_weight=0
internal_count=62
is_linear=0
shrinkage=0.01


Tree=87
num_leaves=2
num_cat=0
split_feature=1
split_gain=6.85729
threshold=1115.0000000000002
decision_type=2
left_child=-1
right_child=-2
leaf_value=0.0048937770559165017 -0.0087441805641442754
leaf_weight=9.6130779236555082 5.1892950385808954
leaf_count=40 22
internal_value=0
internal_weight=0
internal_count=62
is_linear=0
shrinkage=0.01


Tree=88
num_leaves=2
num_cat=0
split_feature=71
split_gain=2.82296
threshold=1.0000000180025095e-35
decision_type=2
left_child=-1
right_child=-2
leaf_value=-0.0042403735266026005 0.0041722834836582182
leaf_weight=7.3988760858774185 7.3851653784513474
leaf_count=31 31
internal_value=0
internal_weight=0
internal_count=62
is_linear=0
shrinkage=0.01


Tree=89
num_leaves=2
num_cat=0
split_feature=5
split_gain=5.43188
threshold=8.5000000000000018
decision_type=2
left_child=-1
right_child=-2
leaf_value=-0.0062428249393938319 0.0054506512754894775
leaf_weight=6.9004604071378708 7.8791556656360626
leaf_count=29 33
internal_value=0
internal_weight=0
internal_count=62
is_linear=0
shrinkage=0.01


Tree=90
num_leaves=2
num_cat=0
split_feature=71
split_gain=2.76388
threshold=1.0000000180025095e-35
decision_type=2
left_child=-1
right_child=-2
leaf_value=-0.0041979466827585313 0.0041314425193799192
leaf_weight=7.3896847069263458 7.3743202835321426
leaf_count=31 31
internal_value=0
internal_weight=0
internal_count=62
is_linear=0
shrinkage=0.01


Tree=91
num_leaves=2
num_cat=0
split_feature=5
split_gain=5.32815
threshold=8.5000000000000018
decision_type=2
left_child=-1
right_child=-2
leaf_value=-0.0061865372437669569 0.0054020309176357204
leaf_weight=6.891329750418663 7.8681678175926208
leaf_count=29 33
internal_value=0
internal_weight=0
internal_count=62
is_linear=0
shrinkage=0.01


Tree=92
num_leaves=2
num_cat=0
split_feature=71
split_gain=2.70613
threshold=1.0000000180025095e-35
decision_type=2
left_child=-1
right_child=-2
leaf_value=-0.004156050460713585 0.0040910975578149888
leaf_weight=7.3803980201482773 7.363401472568512
leaf_count=31 31
internal_value=0
internal_weight=0
internal_count=62
is_linear=0
shrinkage=0.01


Tree=93
num_leaves=2
num_cat=0
split_feature=71
split_gain=2.65699
threshold=1.0000000180025095e-35
decision_type=2
left_child=-1
right_child=-2
leaf_value=-0.0041181748817027937 0.0040549234054434767
leaf_weight=7.3791797161102295 7.3600348830223083
leaf_count=31 31
internal_value=0
internal_weight=0
internal_count=62
is_linear=0
shrinkage=0.01


Tree=94
num_leaves=2
num_cat=0
split_feature=20
split_gain=3.5415
threshold=79.000000000000014
decision_type=2
left_child=-1
right_child=-2
leaf_value=-0.0040865064506338741 0.0054612193306984701
leaf_weight=8.5725774616003019 6.1619875282049188
leaf_count=36 26
internal_value=0
internal_weight=0
internal_count=62
is_linear=0
shrinkage=0.01


Tree=95
num_leaves=2
num_cat=0
split_feature=5
split_gain=5.22069
threshold=7.5000000000000009
decision_type=2
left_child=-1
right_child=-2
leaf_value=-0.0079332063432407413 0.0041223174809537381
leaf_weight=4.8980907648801812 9.8305129259824735
leaf_count=21 41
internal_value=0
internal_weight=0
internal_count=62
is_linear=0
shrinkage=0.01


Tree=96
num_leaves=2
num_cat=0
split_feature=0
split_gain=2.02407
threshold=28.214285714285719
decision_type=2
left_child=-1
right_child=-2
leaf_value=0.0035204075217898801 -0.0036192904212334022
leaf_weight=7.3846541047096252 7.3268645256757736
leaf_count=31 31
internal_value=0
internal_weight=0
internal_count=62
is_linear=0
shrinkage=0.01


Tree=97
num_leaves=2
num_cat=0
split_feature=71
split_gain=2.56607
threshold=1.0000000180025095e-35
decision_type=2
left_child=-1
right_child=-2
leaf_value=-0.0040514414744956002 0.0039898560774768764
leaf_weight=7.3618725389242172 7.3407565057277679
leaf_count=31 31
internal_value=0
internal_weight=0
internal_count=62
is_linear=0
shrinkage=0.01


Tree=98
num_leaves=2
num_cat=0
split_feature=21
split_gain=2.1091
threshold=139.50000000000003
decision_type=2
left_child=-1
right_child=-2
leaf_value=0.0033887288375268991 -0.0039167960721583697
leaf_weight=7.8446349203586578 6.8532335758209229
leaf_count=33 29
internal_value=0
internal_weight=0
internal_count=62
is_linear=0
shrinkage=0.01


Tree=99
num_leaves=2
num_cat=0
split_feature=5
split_gain=5.09576
threshold=8.5000000000000018
decision_type=2
left_child=-1
right_child=-2
leaf_value=-0.0060634639239509971 0.0052913269779911792
leaf_weight=6.8598991930484772 7.8393863290548325
leaf_count=29 33
internal_value=0
internal_weight=0
internal_count=62
is_linear=0
shrinkage=0.01


end of trees

feature_importances:
CRIBII=37
BWg=16
GAtotal=15
k__Fungi;_p__Chytridiomycota;=13
k__Fungi;=8
k__Fungi;_p__Ascomycota;=3
BEmmolL=2
VentDaySIMV_SIMV=2
k__Bacteria;=2
TempC=1
k__Fungi;_p__Mucoromycota;=1

parameters:
[boosting: gbdt]
[objective: binary]
[metric: l2]
[tree_learner: serial]
[device_type: cpu]
[data: ]
[valid: ]
[num_iterations: 100]
[learning_rate: 0.01]
[num_leaves: 8]
[num_threads: 0]
[deterministic: 0]
[force_col_wise: 0]
[force_row_wise: 0]
[histogram_pool_size: -1]
[max_depth: 3]
[min_data_in_leaf: 21]
[min_sum_hessian_in_leaf: 0.001]
[bagging_fraction: 0.979667]
[pos_bagging_fraction: 1]
[neg_bagging_fraction: 1]
[bagging_freq: 0]
[bagging_seed: 3]
[feature_fraction: 0.3]
[feature_fraction_bynode: 1]
[feature_fraction_seed: 2]
[extra_trees: 0]
[extra_seed: 6]
[early_stopping_round: 0]
[first_metric_only: 0]
[max_delta_step: 0]
[lambda_l1: 0.5]
[lambda_l2: 0.584881]
[linear_lambda: 0]
[min_gain_to_split: 0]
[drop_rate: 0.1]
[max_drop: 50]
[skip_drop: 0.5]
[xgboost_dart_mode: 0]
[uniform_drop: 0]
[drop_seed: 4]
[top_rate: 0.2]
[other_rate: 0.1]
[min_data_per_group: 100]
[max_cat_threshold: 32]
[cat_l2: 10]
[cat_smooth: 10]
[max_cat_to_onehot: 4]
[top_k: 20]
[monotone_constraints: ]
[monotone_constraints_method: basic]
[monotone_penalty: 0]
[feature_contri: ]
[forcedsplits_filename: ]
[refit_decay_rate: 0.9]
[cegb_tradeoff: 1]
[cegb_penalty_split: 0]
[cegb_penalty_feature_lazy: ]
[cegb_penalty_feature_coupled: ]
[path_smooth: 0]
[interaction_constraints: ]
[verbosity: -1]
[saved_feature_importance_type: 0]
[linear_tree: 0]
[max_bin: 20]
[max_bin_by_feature: ]
[min_data_in_bin: 3]
[bin_construct_sample_cnt: 200000]
[data_random_seed: 1]
[is_enable_sparse: 1]
[enable_bundle: 1]
[use_missing: 1]
[zero_as_missing: 0]
[feature_pre_filter: 1]
[pre_partition: 0]
[two_round: 0]
[header: 0]
[label_column: ]
[weight_column: ]
[group_column: ]
[ignore_column: ]
[categorical_feature: ]
[forcedbins_filename: ]
[precise_float_parser: 0]
[objective_seed: 5]
[num_class: 1]
[is_unbalance: 0]
[scale_pos_weight: 1]
[sigmoid: 1]
[boost_from_average: 1]
[reg_sqrt: 0]
[alpha: 0.9]
[fair_c: 1]
[poisson_max_delta_step: 0.7]
[tweedie_variance_power: 1.5]
[lambdarank_truncation_level: 30]
[lambdarank_norm: 1]
[label_gain: ]
[eval_at: ]
[multi_error_top_k: 1]
[auc_mu_weights: ]
[num_machines: 1]
[local_listen_port: 12400]
[time_out: 120]
[machine_list_filename: ]
[machines: ]
[gpu_platform_id: -1]
[gpu_device_id: -1]
[gpu_use_dp: 0]
[num_gpu: 1]

end of parameters

pandas_categorical:[]
