tree
version=v3
num_class=1
num_tree_per_iteration=1
label_index=0
max_feature_idx=87
objective=binary sigmoid:1
feature_names=GAtotal BWg SGA3rd TempC BEmmolL CRIBII Sex_F Race_Black Race_White VentDaySIMV_CPAP VentDaySIMV_Cannula VentDaySIMV_HFV VentDaySIMV_SIMV VentDay7_CPAP VentDay7_Cannula VentDay7_HFV VentDay7_SIMV Race_Asian Unassigned; k__Archaea; k__Fungi; k__Bacteria; k__Fungi;_p__Basidiomycota; k__Bacteria;_p__Armatimonadetes; k__Fungi;_p__Aphelidiomycota; k__Bacteria;_p__Proteobacteria; k__Bacteria;_p__Deferribacteres; k__Fungi;_p__GS19; k__Bacteria;_p__Chloroflexi; k__Bacteria;_p__WS2; k__Fungi;_p__Blastocladiomycota; k__Bacteria;_p__SBR1093; k__Bacteria;_p__Acidobacteria; k__Bacteria;_p__AC1; k__Bacteria;_p__SC4; k__Bacteria;_p__Caldithrix; k__Bacteria;_p__TM7; k__Fungi;_p__GS01; k__Fungi;_p__Monoblepharomycota; k__Fungi;_p__unidentified; k__Bacteria;_p__Planctomycetes; k__Bacteria;_p__; k__Bacteria;_p__WWE1; k__Bacteria;_p__Synergistetes; k__Bacteria;_p__Tenericutes; k__Bacteria;_p__Firmicutes; k__Bacteria;_p__GN04; k__Bacteria;_p__Bacteroidetes; k__Bacteria;_p__Nitrospirae; k__Bacteria;_p__GN02; k__Bacteria;_p__WS3; k__Bacteria;_p__OP8; k__Bacteria;_p__OD1; k__Bacteria;_p__TM6; k__Fungi;_p__Ascomycota; k__Bacteria;_p__NKB19; k__Bacteria;_p__WS4; k__Bacteria;_p__FCPU426; k__Bacteria;_p__KSB3; k__Bacteria;_p__SAR406; k__Fungi;_p__Glomeromycota; k__Bacteria;_p__Cyanobacteria; k__Bacteria;_p__Elusimicrobia; k__Bacteria;_p__GOUTA4; k__Bacteria;_p__BRC1; k__Bacteria;_p__Spirochaetes; k__Bacteria;_p__TPD-58; k__Bacteria;_p__NC10; k__Bacteria;_p__Verrucomicrobia; k__Archaea;_p__Euryarchaeota; k__Bacteria;_p__1Caldithrix2; k__Fungi;_p__Chytridiomycota; k__Bacteria;_p__Gemmatimonadetes; k__Bacteria;_p__SR1; k__Fungi;_p__Entomophthoromycota; k__Bacteria;_p__Fibrobacteres; k__Fungi;_p__Mortierellomycota; k__Bacteria;_p__WS6; k__Bacteria;_p__Fusobacteria; k__Bacteria;_p__Chlorobi; k__Bacteria;_p__1Thermi2; k__Bacteria;_p__Actinobacteria; k__Fungi;_p__Rozellomycota; k__Fungi;_p__Mucoromycota; k__Bacteria;_p__LCP-89; k__Bacteria;_p__Hyd24-12; k__Archaea;_p__Crenarchaeota; k__Bacteria;_p__Chlamydiae;
feature_infos=[23.857142857142858:33.571428571428569] [430:1480] none [35.600000000000001:37.799999999999997] [-16:3] [1:16] [0:1] none none none none none [0:1] none none none [0:1] none none none [0:181] [60:676] [0:23] none none [21:240] none none [0:38] none none none [0:21] none none none none none none [0:1] none [31:364] none none none none none none none none none none none none [0:152] none none none none none none none none none none none none none none none none [0:4] none none none none [0:3] none none none none none [0:3] [0:4] none none none none
tree_sizes=350 345 343 454 343 342 343 341 345 343 344 343 454 344 343 348 344 344 344 344 349 344 344 344 347 344 348 344 455 344 344 344 345 349 342 350 342 344 350 344 344 343 344 346 348 344 350 344 348 341 343 344 343 344 344 344 344 344 343 349 344 342 454 344 457 349 344 350 456 344 457 345 457 349 343 345 456 344 345 344 350 350 344 350 345 345 343 345 457 345 456 344 345 345 350 343 343 345 349 348

Tree=0
num_leaves=2
num_cat=0
split_feature=16
split_gain=12.2179
threshold=1.0000000180025095e-35
decision_type=2
left_child=-1
right_child=-2
leaf_value=0.025582673049778317 0.043462533126126787
leaf_weight=10.49735453724861 5.2486772686243066
leaf_count=42 21
internal_value=0.0317487
internal_weight=0
internal_count=63
is_linear=0
shrinkage=1


Tree=1
num_leaves=2
num_cat=0
split_feature=54
split_gain=5.28862
threshold=44.500000000000007
decision_type=2
left_child=-1
right_child=-2
leaf_value=-0.0055072715439366876 0.0056769472307390944
leaf_weight=7.9983054399490356 7.7474979311227798
leaf_count=32 31
internal_value=0
internal_weight=0
internal_count=63
is_linear=0
shrinkage=0.01


Tree=2
num_leaves=2
num_cat=0
split_feature=20
split_gain=4.69769
threshold=81.500000000000014
decision_type=2
left_child=-1
right_child=-2
leaf_value=-0.003946931076383808 0.0070347749967431495
leaf_weight=10.247871413826941 5.497668832540513
leaf_count=41 22
internal_value=0
internal_weight=0
internal_count=63
is_linear=0
shrinkage=0.01


Tree=3
num_leaves=3
num_cat=0
split_feature=16 25
split_gain=11.9055 0.632393
threshold=1.0000000180025095e-35 46.500000000000007
decision_type=2 2
left_child=1 -1
right_child=-2 -3
leaf_value=-0.0018924993139255548 0.011568768963213974 -0.0088061041240306264
leaf_weight=5.2494167983531934 5.2468324154615411 5.2489499151706696
leaf_count=21 21 21
internal_value=0 -0.00608258
internal_weight=0 10.4984
internal_count=63 42
is_linear=0
shrinkage=0.01


Tree=4
num_leaves=2
num_cat=0
split_feature=1
split_gain=20.8728
threshold=1125.0000000000002
decision_type=2
left_child=-1
right_child=-2
leaf_value=0.0085961371128244687 -0.014356198726665159
leaf_weight=9.9946639686822873 5.7494914829730996
leaf_count=40 23
internal_value=0
internal_weight=0
internal_count=63
is_linear=0
shrinkage=0.01


Tree=5
num_leaves=2
num_cat=0
split_feature=1
split_gain=20.4905
threshold=1125.0000000000002
decision_type=2
left_child=-1
right_child=-2
leaf_value=0.0085164864855612234 -0.01422504082765212
leaf_weight=9.9927374422550184 5.7498681545257577
leaf_count=40 23
internal_value=0
internal_weight=0
internal_count=63
is_linear=0
shrinkage=0.01


Tree=6
num_leaves=2
num_cat=0
split_feature=1
split_gain=20.1166
threshold=1125.0000000000002
decision_type=2
left_child=-1
right_child=-2
leaf_value=0.0084378518301190392 -0.014096395167272926
leaf_weight=9.9904653578996641 5.7496570944786081
leaf_count=40 23
internal_value=0
internal_weight=0
internal_count=63
is_linear=0
shrinkage=0.01


Tree=7
num_leaves=2
num_cat=0
split_feature=1
split_gain=19.751
threshold=1125.0000000000002
decision_type=2
left_child=-1
right_child=-2
leaf_value=0.0083602117151347754 -0.013970181581037655
leaf_weight=9.987857982516287 5.7488740235567102
leaf_count=40 23
internal_value=0
internal_weight=0
internal_count=63
is_linear=0
shrinkage=0.01


Tree=8
num_leaves=2
num_cat=0
split_feature=54
split_gain=4.96773
threshold=36.500000000000007
decision_type=2
left_child=-1
right_child=-2
leaf_value=-0.0060197880828082488 0.0048809952768294716
leaf_weight=6.9948389530181894 8.7376212775707227
leaf_count=28 35
internal_value=0
internal_weight=0
internal_count=63
is_linear=0
shrinkage=0.01


Tree=9
num_leaves=2
num_cat=0
split_feature=1
split_gain=19.3609
threshold=1125.0000000000002
decision_type=2
left_child=-1
right_child=-2
leaf_value=0.0082766323820063839 -0.013835397142718215
leaf_weight=9.9842180311679822 5.7472209632396707
leaf_count=40 23
internal_value=0
internal_weight=0
internal_count=63
is_linear=0
shrinkage=0.01


Tree=10
num_leaves=2
num_cat=0
split_feature=5
split_gain=23.5605
threshold=7.5000000000000009
decision_type=2
left_child=-1
right_child=-2
leaf_value=-0.014346069277973954 0.0097169254144093449
leaf_weight=6.2446477115154275 9.4815846979618055
leaf_count=25 38
internal_value=0
internal_weight=0
internal_count=63
is_linear=0
shrinkage=0.01


Tree=11
num_leaves=2
num_cat=0
split_feature=1
split_gain=18.7325
threshold=1125.0000000000002
decision_type=2
left_child=-1
right_child=-2
leaf_value=0.0081403071284926656 -0.013616747443177203
leaf_weight=9.9775202721357328 5.743237018585206
leaf_count=40 23
internal_value=0
internal_weight=0
internal_count=63
is_linear=0
shrinkage=0.01


Tree=12
num_leaves=3
num_cat=0
split_feature=16 25
split_gain=10.6531 0.541107
threshold=1.0000000180025095e-35 46.500000000000007
decision_type=2 2
left_child=1 -1
right_child=-2 -3
leaf_value=-0.0017737951092572336 0.01094565599030883 -0.0083312622528846671
leaf_weight=5.2428785264492017 5.2305521517992029 5.2406309545040131
leaf_count=21 21 21
internal_value=0 -0.00577059
internal_weight=0 10.4835
internal_count=63 42
is_linear=0
shrinkage=0.01


Tree=13
num_leaves=2
num_cat=0
split_feature=5
split_gain=22.7211
threshold=7.5000000000000009
decision_type=2
left_child=-1
right_child=-2
leaf_value=-0.014099892020745354 0.0095417084946945382
leaf_weight=6.2386727482080468 9.4710999429225904
leaf_count=25 38
internal_value=0
internal_weight=0
internal_count=63
is_linear=0
shrinkage=0.01


Tree=14
num_leaves=2
num_cat=0
split_feature=1
split_gain=17.9858
threshold=1125.0000000000002
decision_type=2
left_child=-1
right_child=-2
leaf_value=0.0079742825670618481 -0.013356780486022688
leaf_weight=9.9664943069219571 5.735791191458703
leaf_count=40 23
internal_value=0
internal_weight=0
internal_count=63
is_linear=0
shrinkage=0.01


Tree=15
num_leaves=2
num_cat=0
split_feature=16
split_gain=10.2061
threshold=1.0000000180025095e-35
decision_type=2
left_child=-1
right_child=-2
leaf_value=-0.0056555329050165882 0.010717919632319738
leaf_weight=10.47300188243389 5.2208465039730081
leaf_count=42 21
internal_value=0
internal_weight=0
internal_count=63
is_linear=0
shrinkage=0.01


Tree=16
num_leaves=2
num_cat=0
split_feature=0
split_gain=12.9563
threshold=29.214285714285719
decision_type=2
left_child=-1
right_child=-2
leaf_value=0.0065570957678420909 -0.011707539279961194
leaf_weight=10.206033498048781 5.4827493280172357
leaf_count=41 22
internal_value=0
internal_weight=0
internal_count=63
is_linear=0
shrinkage=0.01


Tree=17
num_leaves=2
num_cat=0
split_feature=1
split_gain=17.3933
threshold=1125.0000000000002
decision_type=2
left_child=-1
right_child=-2
leaf_value=0.0078435198983190964 -0.013145818467234538
leaf_weight=9.9556231647729856 5.7275430858135232
leaf_count=40 23
internal_value=0
internal_weight=0
internal_count=63
is_linear=0
shrinkage=0.01


Tree=18
num_leaves=2
num_cat=0
split_feature=1
split_gain=17.0856
threshold=1125.0000000000002
decision_type=2
left_child=-1
right_child=-2
leaf_value=0.0077731113583083787 -0.013036580756089142
leaf_weight=9.9506654441356641 5.7227054685354242
leaf_count=40 23
internal_value=0
internal_weight=0
internal_count=63
is_linear=0
shrinkage=0.01


Tree=19
num_leaves=2
num_cat=0
split_feature=5
split_gain=21.1991
threshold=7.5000000000000009
decision_type=2
left_child=-1
right_child=-2
leaf_value=-0.013647996718003565 0.0092207742991654851
leaf_weight=6.2179751396179208 9.4449060857295972
leaf_count=25 38
internal_value=0
internal_weight=0
internal_count=63
is_linear=0
shrinkage=0.01


Tree=20
num_leaves=2
num_cat=0
split_feature=71
split_gain=4.39873
threshold=1.0000000180025095e-35
decision_type=2
left_child=-1
right_child=-2
leaf_value=-0.0050580903887688664 0.005170308168673505
leaf_weight=7.9558547884225845 7.6959648728370667
leaf_count=32 31
internal_value=0
internal_weight=0
internal_count=63
is_linear=0
shrinkage=0.01


Tree=21
num_leaves=2
num_cat=0
split_feature=1
split_gain=16.5003
threshold=1125.0000000000002
decision_type=2
left_child=-1
right_child=-2
leaf_value=0.0076387607811631199 -0.012827560734875579
leaf_weight=9.9381848871707898 5.7112444192171106
leaf_count=40 23
internal_value=0
internal_weight=0
internal_count=63
is_linear=0
shrinkage=0.01


Tree=22
num_leaves=2
num_cat=0
split_feature=1
split_gain=16.2111
threshold=1125.0000000000002
decision_type=2
left_child=-1
right_child=-2
leaf_value=0.0075707275276708907 -0.012723611682451091
leaf_weight=9.9325025379657728 5.7051337212324151
leaf_count=40 23
internal_value=0
internal_weight=0
internal_count=63
is_linear=0
shrinkage=0.01


Tree=23
num_leaves=2
num_cat=0
split_feature=1
split_gain=15.9277
threshold=1125.0000000000002
decision_type=2
left_child=-1
right_child=-2
leaf_value=0.0075034692379951145 -0.012621342662691002
leaf_weight=9.9265905618667585 5.6986196786165246
leaf_count=40 23
internal_value=0
internal_weight=0
internal_count=63
is_linear=0
shrinkage=0.01


Tree=24
num_leaves=2
num_cat=0
split_feature=16
split_gain=9.1888
threshold=1.0000000180025095e-35
decision_type=2
left_child=-1
right_child=-2
leaf_value=-0.0053869628725063566 0.010188598453352475
leaf_weight=10.42235530912876 5.1898158341646203
leaf_count=42 21
internal_value=0
internal_weight=0
internal_count=63
is_linear=0
shrinkage=0.01


Tree=25
num_leaves=2
num_cat=0
split_feature=1
split_gain=15.5399
threshold=1125.0000000000002
decision_type=2
left_child=-1
right_child=-2
leaf_value=0.0074139297414131753 -0.012477994231648261
leaf_weight=9.9162025302648527 5.6886332929134378
leaf_count=40 23
internal_value=0
internal_weight=0
internal_count=63
is_linear=0
shrinkage=0.01


Tree=26
num_leaves=2
num_cat=0
split_feature=16
split_gain=8.91922
threshold=1.0000000180025095e-35
decision_type=2
left_child=-1
right_child=-2
leaf_value=-0.0053087364453393397 0.010048123691751107
leaf_weight=10.411249980330465 5.179718330502511
leaf_count=42 21
internal_value=0
internal_weight=0
internal_count=63
is_linear=0
shrinkage=0.01


Tree=27
num_leaves=2
num_cat=0
split_feature=5
split_gain=19.6511
threshold=7.5000000000000009
decision_type=2
left_child=-1
right_child=-2
leaf_value=-0.013184567720109197 0.0088886044433617098
leaf_weight=6.1802947372198114 9.4027674794197065
leaf_count=25 38
internal_value=0
internal_weight=0
internal_count=63
is_linear=0
shrinkage=0.01


Tree=28
num_leaves=3
num_cat=0
split_feature=16 22
split_gain=8.65033 0.573819
threshold=1.0000000180025095e-35 4.5000000000000009
decision_type=2 2
left_child=1 -1
right_child=-2 -3
leaf_value=-0.0077546089155052017 0.0099070827219333232 -0.0013122104756582446
leaf_weight=5.198241248726843 5.1684249788522729 5.2018182724714279
leaf_count=21 21 21
internal_value=0 -0.00522891
internal_weight=0 10.4001
internal_count=63 42
is_linear=0
shrinkage=0.01


Tree=29
num_leaves=2
num_cat=0
split_feature=1
split_gain=14.8453
threshold=1125.0000000000002
decision_type=2
left_child=-1
right_child=-2
leaf_value=0.0072481246195197566 -0.012222974408733586
leaf_weight=9.8924051225185377 5.6674313992261895
leaf_count=40 23
internal_value=0
internal_weight=0
internal_count=63
is_linear=0
shrinkage=0.01


Tree=30
num_leaves=2
num_cat=0
split_feature=5
split_gain=18.9888
threshold=7.5000000000000009
decision_type=2
left_child=-1
right_child=-2
leaf_value=-0.012985241530143785 0.0087391339529115236
leaf_weight=6.1621069759130487 9.3824159801006299
leaf_count=25 38
internal_value=0
internal_weight=0
internal_count=63
is_linear=0
shrinkage=0.01


Tree=31
num_leaves=2
num_cat=0
split_feature=1
split_gain=14.3819
threshold=1125.0000000000002
decision_type=2
left_child=-1
right_child=-2
leaf_value=0.0071333439974006624 -0.012052315115788038
leaf_weight=9.8774700164794904 5.6510356217622766
leaf_count=40 23
internal_value=0
internal_weight=0
internal_count=63
is_linear=0
shrinkage=0.01


Tree=32
num_leaves=2
num_cat=0
split_feature=20
split_gain=3.58581
threshold=81.500000000000014
decision_type=2
left_child=-1
right_child=-2
leaf_value=-0.0035048131901915126 0.006157938503963482
leaf_weight=10.103203594684599 5.4090518206357965
leaf_count=41 22
internal_value=0
internal_weight=0
internal_count=63
is_linear=0
shrinkage=0.01


Tree=33
num_leaves=2
num_cat=0
split_feature=16
split_gain=8.17475
threshold=1.0000000180025095e-35
decision_type=2
left_child=-1
right_child=-2
leaf_value=-0.0050960985687292957 0.0096458386659417257
leaf_weight=10.364295542240141 5.145019158720971
leaf_count=42 21
internal_value=0
internal_weight=0
internal_count=63
is_linear=0
shrinkage=0.01


Tree=34
num_leaves=2
num_cat=0
split_feature=5
split_gain=18.3119
threshold=7.5000000000000009
decision_type=2
left_child=-1
right_child=-2
leaf_value=-0.012774387840052861 0.00858961606965126
leaf_weight=6.1405550688505182 9.3593476861715299
leaf_count=25 38
internal_value=0
internal_weight=0
internal_count=63
is_linear=0
shrinkage=0.01


Tree=35
num_leaves=2
num_cat=0
split_feature=71
split_gain=3.79727
threshold=1.0000000180025095e-35
decision_type=2
left_child=-1
right_child=-2
leaf_value=-0.0047310145303865363 0.0048205608155243562
leaf_weight=7.8732997328042984 7.6091517955064774
leaf_count=32 31
internal_value=0
internal_weight=0
internal_count=63
is_linear=0
shrinkage=0.01


Tree=36
num_leaves=2
num_cat=0
split_feature=5
split_gain=17.9674
threshold=7.5000000000000009
decision_type=2
left_child=-1
right_child=-2
leaf_value=-0.0126658426424684 0.0085106643216327441
leaf_weight=6.1301161646842965 9.3486404567956907
leaf_count=25 38
internal_value=0
internal_weight=0
internal_count=63
is_linear=0
shrinkage=0.01


Tree=37
num_leaves=2
num_cat=0
split_feature=1
split_gain=13.5888
threshold=1125.0000000000002
decision_type=2
left_child=-1
right_child=-2
leaf_value=0.0069392993823706867 -0.011752957390879105
leaf_weight=9.8433004766702634 5.6172969937324533
leaf_count=40 23
internal_value=0
internal_weight=0
internal_count=63
is_linear=0
shrinkage=0.01


Tree=38
num_leaves=2
num_cat=0
split_feature=16
split_gain=7.70826
threshold=1.0000000180025095e-35
decision_type=2
left_child=-1
right_child=-2
leaf_value=-0.0049584137892380959 0.0093875909881143138
leaf_weight=10.324414834380148 5.1183904111385354
leaf_count=42 21
internal_value=0
internal_weight=0
internal_count=63
is_linear=0
shrinkage=0.01


Tree=39
num_leaves=2
num_cat=0
split_feature=1
split_gain=13.2675
threshold=1125.0000000000002
decision_type=2
left_child=-1
right_child=-2
leaf_value=0.0068592802206998513 -0.011628613037259924
leaf_weight=9.8295185416936857 5.6029928922653207
leaf_count=40 23
internal_value=0
internal_weight=0
internal_count=63
is_linear=0
shrinkage=0.01


Tree=40
num_leaves=2
num_cat=0
split_feature=0
split_gain=10.0555
threshold=29.214285714285719
decision_type=2
left_child=-1
right_child=-2
leaf_value=0.0057955831675388326 -0.010435865786488864
leaf_weight=10.044055432081221 5.3700633049011239
leaf_count=41 22
internal_value=0
internal_weight=0
internal_count=63
is_linear=0
shrinkage=0.01


Tree=41
num_leaves=2
num_cat=0
split_feature=0
split_gain=9.88082
threshold=29.214285714285719
decision_type=2
left_child=-1
right_child=-2
leaf_value=0.0057436846627462266 -0.010353319720132308
leaf_weight=10.03877432644367 5.3634458631277093
leaf_count=41 22
internal_value=0
internal_weight=0
internal_count=63
is_linear=0
shrinkage=0.01


Tree=42
num_leaves=2
num_cat=0
split_feature=1
split_gain=12.8363
threshold=1125.0000000000002
decision_type=2
left_child=-1
right_child=-2
leaf_value=0.0067452617909927971 -0.011466969475474473
leaf_weight=9.8093840181827527 5.5806137919425973
leaf_count=40 23
internal_value=0
internal_weight=0
internal_count=63
is_linear=0
shrinkage=0.01


Tree=43
num_leaves=2
num_cat=0
split_feature=41
split_gain=1.89371
threshold=81.000000000000014
decision_type=2
left_child=-1
right_child=-2
leaf_value=0.0037085797449679181 -0.0030932390825964794
leaf_weight=6.8476016223430642 8.5232219994068128
leaf_count=28 35
internal_value=0
internal_weight=0
internal_count=63
is_linear=0
shrinkage=0.01


Tree=44
num_leaves=2
num_cat=0
split_feature=71
split_gain=3.53137
threshold=1.0000000180025095e-35
decision_type=2
left_child=-1
right_child=-2
leaf_value=-0.004584165662491247 0.0046583230608692114
leaf_weight=7.8158399164676666 7.553332731127739
leaf_count=32 31
internal_value=0
internal_weight=0
internal_count=63
is_linear=0
shrinkage=0.01


Tree=45
num_leaves=2
num_cat=0
split_feature=1
split_gain=12.5708
threshold=1125.0000000000002
decision_type=2
left_child=-1
right_child=-2
leaf_value=0.0066755381882730091 -0.011363623010185595
leaf_weight=9.7981356978416425 5.5668216347694406
leaf_count=40 23
internal_value=0
internal_weight=0
internal_count=63
is_linear=0
shrinkage=0.01


Tree=46
num_leaves=2
num_cat=0
split_feature=16
split_gain=7.15415
threshold=1.0000000180025095e-35
decision_type=2
left_child=-1
right_child=-2
leaf_value=-0.0047939955963982091 0.0090692919694399139
leaf_weight=10.263576924800871 5.0817377865314493
leaf_count=42 21
internal_value=0
internal_weight=0
internal_count=63
is_linear=0
shrinkage=0.01


Tree=47
num_leaves=2
num_cat=0
split_feature=1
split_gain=12.2768
threshold=1125.0000000000002
decision_type=2
left_child=-1
right_child=-2
leaf_value=0.0065994307876800565 -0.011246882204112166
leaf_weight=9.7832350581884366 5.5508148670196542
leaf_count=40 23
internal_value=0
internal_weight=0
internal_count=63
is_linear=0
shrinkage=0.01


Tree=48
num_leaves=2
num_cat=0
split_feature=71
split_gain=3.38184
threshold=1.0000000180025095e-35
decision_type=2
left_child=-1
right_child=-2
leaf_value=-0.0044944692770120219 0.0045653647814424868
leaf_weight=7.78827765583992 7.5256243199110031
leaf_count=32 31
internal_value=0
internal_weight=0
internal_count=63
is_linear=0
shrinkage=0.01


Tree=49
num_leaves=2
num_cat=0
split_feature=1
split_gain=12.041
threshold=1125.0000000000002
decision_type=2
left_child=-1
right_child=-2
leaf_value=0.0065356376977187946 -0.011154245313795847
leaf_weight=9.7721017301082593 5.53731493651867
leaf_count=40 23
internal_value=0
internal_weight=0
internal_count=63
is_linear=0
shrinkage=0.01


Tree=50
num_leaves=2
num_cat=0
split_feature=1
split_gain=11.839
threshold=1125.0000000000002
decision_type=2
left_child=-1
right_child=-2
leaf_value=0.0064794789290097791 -0.011074784005932148
leaf_weight=9.7633433490991575 5.5255301594734201
leaf_count=40 23
internal_value=0
internal_weight=0
internal_count=63
is_linear=0
shrinkage=0.01


Tree=51
num_leaves=2
num_cat=0
split_feature=5
split_gain=15.8667
threshold=7.5000000000000009
decision_type=2
left_child=-1
right_child=-2
leaf_value=-0.012023164497781909 0.0080153036191735159
leaf_weight=6.0221643745899209 9.2458335012197477
leaf_count=25 38
internal_value=0
internal_weight=0
internal_count=63
is_linear=0
shrinkage=0.01


Tree=52
num_leaves=2
num_cat=0
split_feature=1
split_gain=11.4783
threshold=1125.0000000000002
decision_type=2
left_child=-1
right_child=-2
leaf_value=0.0063790992361146808 -0.010932738162569414
leaf_weight=9.7437467128038389 5.501984268426896
leaf_count=40 23
internal_value=0
internal_weight=0
internal_count=63
is_linear=0
shrinkage=0.01


Tree=53
num_leaves=2
num_cat=0
split_feature=1
split_gain=11.2868
threshold=1125.0000000000002
decision_type=2
left_child=-1
right_child=-2
leaf_value=0.0063245042576007852 -0.010856099389941318
leaf_weight=9.7346733659505826 5.4896084070205697
leaf_count=40 23
internal_value=0
internal_weight=0
internal_count=63
is_linear=0
shrinkage=0.01


Tree=54
num_leaves=2
num_cat=0
split_feature=1
split_gain=11.0989
threshold=1125.0000000000002
decision_type=2
left_child=-1
right_child=-2
leaf_value=0.0062704473215812366 -0.010780410754425455
leaf_weight=9.7254973798990232 5.4770385921001443
leaf_count=40 23
internal_value=0
internal_weight=0
internal_count=63
is_linear=0
shrinkage=0.01


Tree=55
num_leaves=2
num_cat=0
split_feature=0
split_gain=8.72229
threshold=29.214285714285719
decision_type=2
left_child=-1
right_child=-2
leaf_value=0.0054063779385762336 -0.009831325385310374
leaf_weight=9.9170770943164808 5.2634285837411889
leaf_count=41 22
internal_value=0
internal_weight=0
internal_count=63
is_linear=0
shrinkage=0.01


Tree=56
num_leaves=2
num_cat=0
split_feature=5
split_gain=14.9941
threshold=7.5000000000000009
decision_type=2
left_child=-1
right_child=-2
leaf_value=-0.011751944626641619 0.0077950535554680298
leaf_weight=5.9674195498228082 9.1987939178943616
leaf_count=25 38
internal_value=0
internal_weight=0
internal_count=63
is_linear=0
shrinkage=0.01


Tree=57
num_leaves=2
num_cat=0
split_feature=1
split_gain=10.6784
threshold=1125.0000000000002
decision_type=2
left_child=-1
right_child=-2
leaf_value=0.0061492101357727667 -0.010612157260882001
leaf_weight=9.6978872418403608 5.4445247352123269
leaf_count=40 23
internal_value=0
internal_weight=0
internal_count=63
is_linear=0
shrinkage=0.01


Tree=58
num_leaves=2
num_cat=0
split_feature=5
split_gain=14.5995
threshold=7.5000000000000009
decision_type=2
left_child=-1
right_child=-2
leaf_value=-0.011625267965759382 0.007693439923591219
leaf_weight=5.9422467350959787 9.1775327324867231
leaf_count=25 38
internal_value=0
internal_weight=0
internal_count=63
is_linear=0
shrinkage=0.01


Tree=59
num_leaves=2
num_cat=0
split_feature=16
split_gain=6.17344
threshold=1.0000000180025095e-35
decision_type=2
left_child=-1
right_child=-2
leaf_value=-0.0045029546784422208 0.0084716901157555237
leaf_weight=10.09606049954891 4.9992616325616845
leaf_count=42 21
internal_value=0
internal_weight=0
internal_count=63
is_linear=0
shrinkage=0.01


Tree=60
num_leaves=2
num_cat=0
split_feature=5
split_gain=14.2823
threshold=7.5000000000000009
decision_type=2
left_child=-1
right_child=-2
leaf_value=-0.011516841382701907 0.0076146502586030874
leaf_weight=5.9234039783477792 9.1591806113719922
leaf_count=25 38
internal_value=0
internal_weight=0
internal_count=63
is_linear=0
shrinkage=0.01


Tree=61
num_leaves=2
num_cat=0
split_feature=1
split_gain=10.1466
threshold=1125.0000000000002
decision_type=2
left_child=-1
right_child=-2
leaf_value=0.0059965898727542422 -0.010392247163126285
leaf_weight=9.6578297764062864 5.39979211986065
leaf_count=40 23
internal_value=0
internal_weight=0
internal_count=63
is_linear=0
shrinkage=0.01


Tree=62
num_leaves=3
num_cat=0
split_feature=16 22
split_gain=5.9269 0.537036
threshold=1.0000000180025095e-35 4.5000000000000009
decision_type=2 2
left_child=1 -1
right_child=-2 -3
leaf_value=-0.006793948229406383 0.0083185305207675812 -0.00070124880547401628
leaf_weight=5.0235312283039075 4.9753795564174661 5.0353735983371735
leaf_count=21 21 21
internal_value=0 -0.0044199
internal_weight=0 10.0589
internal_count=63 42
is_linear=0
shrinkage=0.01


Tree=63
num_leaves=2
num_cat=0
split_feature=1
split_gain=9.91591
threshold=1125.0000000000002
decision_type=2
left_child=-1
right_child=-2
leaf_value=0.0059264408053327465 -0.010296378848933495
leaf_weight=9.6400609761476499 5.3808848857879648
leaf_count=40 23
internal_value=0
internal_weight=0
internal_count=63
is_linear=0
shrinkage=0.01


Tree=64
num_leaves=3
num_cat=0
split_feature=16 25
split_gain=5.76763 0.445389
threshold=1.0000000180025095e-35 46.500000000000007
decision_type=2 2
left_child=1 -1
right_child=-2 -3
leaf_value=-0.00081303248451758902 0.0082152219703574645 -0.0066136031926419137
leaf_weight=5.0582074970006925 4.9591693729162225 4.9799459129571915
leaf_count=21 21 21
internal_value=0 -0.00436707
internal_weight=0 10.0382
internal_count=63 42
is_linear=0
shrinkage=0.01


Tree=65
num_leaves=2
num_cat=0
split_feature=71
split_gain=2.9317
threshold=1.0000000180025095e-35
decision_type=2
left_child=-1
right_child=-2
leaf_value=-0.0042482951640310501 0.0042724208899690679
leaf_weight=7.6182373613119125 7.3653265833854675
leaf_count=32 31
internal_value=0
internal_weight=0
internal_count=63
is_linear=0
shrinkage=0.01


Tree=66
num_leaves=2
num_cat=0
split_feature=5
split_gain=13.6171
threshold=7.5000000000000009
decision_type=2
left_child=-1
right_child=-2
leaf_value=-0.011304915647125238 0.0074407736406049462
leaf_weight=5.8714335113763818 9.1069134920835477
leaf_count=25 38
internal_value=0
internal_weight=0
internal_count=63
is_linear=0
shrinkage=0.01


Tree=67
num_leaves=2
num_cat=0
split_feature=71
split_gain=2.85969
threshold=1.0000000180025095e-35
decision_type=2
left_child=-1
right_child=-2
leaf_value=-0.0042004683416178006 0.0042230748538414154
leaf_weight=7.6032242625951767 7.3491499871015549
leaf_count=32 31
internal_value=0
internal_weight=0
internal_count=63
is_linear=0
shrinkage=0.01


Tree=68
num_leaves=3
num_cat=0
split_feature=16 25
split_gain=5.56438 0.443144
threshold=1.0000000180025095e-35 46.500000000000007
decision_type=2 2
left_child=1 -1
right_child=-2 -3
leaf_value=-0.00076209459272738589 0.0080846275367292136 -0.0065312065903795546
leaf_weight=5.0489719212055189 4.9366054832935342 4.961485356092453
leaf_count=21 21 21
internal_value=0 -0.00429604
internal_weight=0 10.0105
internal_count=63 42
is_linear=0
shrinkage=0.01


Tree=69
num_leaves=2
num_cat=0
split_feature=1
split_gain=9.43527
threshold=1125.0000000000002
decision_type=2
left_child=-1
right_child=-2
leaf_value=0.0057808472785911072 -0.010093457072987023
leaf_weight=9.5962314307689649 5.3368381708860406
leaf_count=40 23
internal_value=0
internal_weight=0
internal_count=63
is_linear=0
shrinkage=0.01


Tree=70
num_leaves=3
num_cat=0
split_feature=16 25
split_gain=5.41541 0.426263
threshold=1.0000000180025095e-35 46.500000000000007
decision_type=2 2
left_child=1 -1
right_child=-2 -3
leaf_value=-0.00074908738529302107 0.0079850026578504336 -0.0064481281174169989
leaf_weight=5.0416006594896299 4.9199173599481592 4.9473851919174194
leaf_count=21 21 21
internal_value=0 -0.00424513
internal_weight=0 9.98899
internal_count=63 42
is_linear=0
shrinkage=0.01


Tree=71
num_leaves=2
num_cat=0
split_feature=1
split_gain=9.21499
threshold=1125.0000000000002
decision_type=2
left_child=-1
right_child=-2
leaf_value=0.0057110289852261055 -0.0099989471158891258
leaf_weight=9.5781174153089506 5.3166064918041238
leaf_count=40 23
internal_value=0
internal_weight=0
internal_count=63
is_linear=0
shrinkage=0.01


Tree=72
num_leaves=3
num_cat=0
split_feature=16 25
split_gain=5.27071 0.409937
threshold=1.0000000180025095e-35 46.500000000000007
decision_type=2 2
left_child=1 -1
right_child=-2 -3
leaf_value=-0.00073625509293935283 0.0078869613596504549 -0.0063663586272538009
leaf_weight=5.0341741889715177 4.9030560255050668 4.9330934137105942
leaf_count=21 21 21
internal_value=0 -0.00419502
internal_weight=0 9.96727
internal_count=63 42
is_linear=0
shrinkage=0.01


Tree=73
num_leaves=2
num_cat=0
split_feature=16
split_gain=5.18754
threshold=1.0000000180025095e-35
decision_type=2
left_child=-1
right_child=-2
leaf_value=-0.0041635206022582116 0.007830662269436621
leaf_weight=9.9627966135740262 4.8931783735752115
leaf_count=42 21
internal_value=0
internal_weight=0
internal_count=63
is_linear=0
shrinkage=0.01


Tree=74
num_leaves=2
num_cat=0
split_feature=5
split_gain=12.8697
threshold=7.5000000000000009
decision_type=2
left_child=-1
right_child=-2
leaf_value=-0.011062224560178363 0.0072445087035618062
leaf_weight=5.8053871989250192 9.036734923720358
leaf_count=25 38
internal_value=0
internal_weight=0
internal_count=63
is_linear=0
shrinkage=0.01


Tree=75
num_leaves=2
num_cat=0
split_feature=1
split_gain=8.82114
threshold=1125.0000000000002
decision_type=2
left_child=-1
right_child=-2
leaf_value=0.0055893698447677118 -0.0098256791187769053
leaf_weight=9.5391737818717939 5.2759490758180627
leaf_count=40 23
internal_value=0
internal_weight=0
internal_count=63
is_linear=0
shrinkage=0.01


Tree=76
num_leaves=3
num_cat=0
split_feature=16 22
split_gain=4.98055 0.52924
threshold=1.0000000180025095e-35 4.5000000000000009
decision_type=2 2
left_child=1 -1
right_child=-2 -3
leaf_value=-0.0064106865187736938 0.0076911559959408748 -0.00044660899944632223
leaf_weight=4.9472516775131208 4.8672852814197549 4.9758091270923615
leaf_count=21 21 21
internal_value=0 -0.00408722
internal_weight=0 9.92306
internal_count=63 42
is_linear=0
shrinkage=0.01


Tree=77
num_leaves=2
num_cat=0
split_feature=1
split_gain=8.62492
threshold=1125.0000000000002
decision_type=2
left_child=-1
right_child=-2
leaf_value=0.0055253257129245208 -0.0097391103903083833
leaf_weight=9.5201832056045514 5.255822867155076
leaf_count=40 23
internal_value=0
internal_weight=0
internal_count=63
is_linear=0
shrinkage=0.01


Tree=78
num_leaves=2
num_cat=0
split_feature=1
split_gain=8.48481
threshold=1125.0000000000002
decision_type=2
left_child=-1
right_child=-2
leaf_value=0.0054788296453821099 -0.0096760265648243565
leaf_weight=9.5099817067384702 5.2410748600959787
leaf_count=40 23
internal_value=0
internal_weight=0
internal_count=63
is_linear=0
shrinkage=0.01


Tree=79
num_leaves=2
num_cat=0
split_feature=5
split_gain=12.2548
threshold=7.5000000000000009
decision_type=2
left_child=-1
right_child=-2
leaf_value=-0.010862313637917773 0.0070738146841358464
leaf_weight=5.7443544268608102 8.9816298782825452
leaf_count=25 38
internal_value=0
internal_weight=0
internal_count=63
is_linear=0
shrinkage=0.01


Tree=80
num_leaves=2
num_cat=0
split_feature=16
split_gain=4.73471
threshold=1.0000000180025095e-35
decision_type=2
left_child=-1
right_child=-2
leaf_value=-0.0040019708376234833 0.0075161851987453543
leaf_weight=9.8644343465566617 4.8337818682193765
leaf_count=42 21
internal_value=0
internal_weight=0
internal_count=63
is_linear=0
shrinkage=0.01


Tree=81
num_leaves=2
num_cat=0
split_feature=71
split_gain=2.55338
threshold=1.0000000180025095e-35
decision_type=2
left_child=-1
right_child=-2
leaf_value=-0.0040161893098371697 0.0040101266959129429
leaf_weight=7.4678895771503448 7.2161247283220291
leaf_count=32 31
internal_value=0
internal_weight=0
internal_count=63
is_linear=0
shrinkage=0.01


Tree=82
num_leaves=2
num_cat=0
split_feature=1
split_gain=8.16179
threshold=1125.0000000000002
decision_type=2
left_child=-1
right_child=-2
leaf_value=0.0053768021774830334 -0.0095271721176774012
leaf_weight=9.4755044430494291 5.202834054827691
leaf_count=40 23
internal_value=0
internal_weight=0
internal_count=63
is_linear=0
shrinkage=0.01


Tree=83
num_leaves=2
num_cat=0
split_feature=71
split_gain=2.48871
threshold=1.0000000180025095e-35
decision_type=2
left_child=-1
right_child=-2
leaf_value=-0.0039700438214797422 0.0039616957213709269
leaf_weight=7.4520894438028336 7.2009361088275909
leaf_count=32 31
internal_value=0
internal_weight=0
internal_count=63
is_linear=0
shrinkage=0.01


Tree=84
num_leaves=2
num_cat=0
split_feature=0
split_gain=6.74058
threshold=29.214285714285719
decision_type=2
left_child=-1
right_child=-2
leaf_value=0.0047802927465135118 -0.0088582068995445105
leaf_weight=9.6111976355314237 5.0360907614231119
leaf_count=41 22
internal_value=0
internal_weight=0
internal_count=63
is_linear=0
shrinkage=0.01


Tree=85
num_leaves=2
num_cat=0
split_feature=1
split_gain=7.94976
threshold=1125.0000000000002
decision_type=2
left_child=-1
right_child=-2
leaf_value=0.0053060430907223392 -0.0094300726569491039
leaf_weight=9.4538317173719388 5.1765739321708688
leaf_count=40 23
internal_value=0
internal_weight=0
internal_count=63
is_linear=0
shrinkage=0.01


Tree=86
num_leaves=2
num_cat=0
split_feature=5
split_gain=11.6447
threshold=7.5000000000000009
decision_type=2
left_child=-1
right_child=-2
leaf_value=-0.010651614023091557 0.0069062293061474102
leaf_weight=5.681424245238305 8.9235294014215452
leaf_count=25 38
internal_value=0
internal_weight=0
internal_count=63
is_linear=0
shrinkage=0.01


Tree=87
num_leaves=2
num_cat=0
split_feature=1
split_gain=7.71389
threshold=1125.0000000000002
decision_type=2
left_child=-1
right_child=-2
leaf_value=0.0052253630929426174 -0.0093208837265638372
leaf_weight=9.4299837350845319 5.1465312391519555
leaf_count=40 23
internal_value=0
internal_weight=0
internal_count=63
is_linear=0
shrinkage=0.01


Tree=88
num_leaves=3
num_cat=0
split_feature=16 25
split_gain=4.37784 0.399261
threshold=1.0000000180025095e-35 46.500000000000007
decision_type=2 2
left_child=1 -1
right_child=-2 -3
leaf_value=-0.00049273126920923449 0.0072594822819201819 -0.0059871252835333516
leaf_weight=4.9545054882764799 4.7813138067722329 4.8151019066572189
leaf_count=21 21 21
internal_value=0 -0.00386883
internal_weight=0 9.76961
internal_count=63 42
is_linear=0
shrinkage=0.01


Tree=89
num_leaves=2
num_cat=0
split_feature=1
split_gain=7.53722
threshold=1125.0000000000002
decision_type=2
left_child=-1
right_child=-2
leaf_value=0.0051629859075468243 -0.0092378807136299212
leaf_weight=9.4109847843646985 5.1249446123838434
leaf_count=40 23
internal_value=0
internal_weight=0
internal_count=63
is_linear=0
shrinkage=0.01


Tree=90
num_leaves=3
num_cat=0
split_feature=16 22
split_gain=4.26288 0.510963
threshold=1.0000000180025095e-35 4.5000000000000009
decision_type=2 2
left_child=1 -1
right_child=-2 -3
leaf_value=-0.0060925352051752818 0.0071725762380174529 -0.0002517612565793657
leaf_weight=4.8537277132272703 4.7636759132146844 4.8928385227918625
leaf_count=21 21 21
internal_value=0 -0.00382463
internal_weight=0 9.74657
internal_count=63 42
is_linear=0
shrinkage=0.01


Tree=91
num_leaves=2
num_cat=0
split_feature=5
split_gain=11.1519
threshold=7.5000000000000009
decision_type=2
left_child=-1
right_child=-2
leaf_value=-0.010485088290375822 0.0067627268759391746
leaf_weight=5.6259960681200036 8.8694594204425794
leaf_count=25 38
internal_value=0
internal_weight=0
internal_count=63
is_linear=0
shrinkage=0.01


Tree=92
num_leaves=2
num_cat=0
split_feature=1
split_gain=7.27069
threshold=1125.0000000000002
decision_type=2
left_child=-1
right_child=-2
leaf_value=0.0050692275971188838 -0.0091118173552460578
leaf_weight=9.3777377903461439 5.0888051092624673
leaf_count=40 23
internal_value=0
internal_weight=0
internal_count=63
is_linear=0
shrinkage=0.01


Tree=93
num_leaves=2
num_cat=0
split_feature=1
split_gain=7.15396
threshold=1125.0000000000002
decision_type=2
left_child=-1
right_child=-2
leaf_value=0.0050267893199736433 -0.0090547758590983872
leaf_weight=9.3673296719789487 5.0734155923128137
leaf_count=40 23
internal_value=0
internal_weight=0
internal_count=63
is_linear=0
shrinkage=0.01


Tree=94
num_leaves=2
num_cat=0
split_feature=16
split_gain=4.05503
threshold=1.0000000180025095e-35
decision_type=2
left_child=-1
right_child=-2
leaf_value=-0.0037470342953024888 0.0070121444851679524
leaf_weight=9.6854895502328855 4.7294086217880258
leaf_count=42 21
internal_value=0
internal_weight=0
internal_count=63
is_linear=0
shrinkage=0.01


Tree=95
num_leaves=2
num_cat=0
split_feature=1
split_gain=6.99665
threshold=1125.0000000000002
decision_type=2
left_child=-1
right_child=-2
leaf_value=0.0049728771103156712 -0.0089749001707481769
leaf_weight=9.348848804831503 5.051562264561654
leaf_count=40 23
internal_value=0
internal_weight=0
internal_count=63
is_linear=0
shrinkage=0.01


Tree=96
num_leaves=2
num_cat=0
split_feature=1
split_gain=6.88457
threshold=1125.0000000000002
decision_type=2
left_child=-1
right_child=-2
leaf_value=0.004931274015901637 -0.0089190810494862403
leaf_weight=9.3384304791688901 5.036083236336709
leaf_count=40 23
internal_value=0
internal_weight=0
internal_count=63
is_linear=0
shrinkage=0.01


Tree=97
num_leaves=2
num_cat=0
split_feature=0
split_gain=5.94492
threshold=29.214285714285719
decision_type=2
left_child=-1
right_child=-2
leaf_value=0.0044996578106831827 -0.0084453259842722991
leaf_weight=9.4457556605339033 4.9028247892856607
leaf_count=41 22
internal_value=0
internal_weight=0
internal_count=63
is_linear=0
shrinkage=0.01


Tree=98
num_leaves=2
num_cat=0
split_feature=16
split_gain=3.86935
threshold=1.0000000180025095e-35
decision_type=2
left_child=-1
right_child=-2
leaf_value=-0.0036708988942029631 0.006868714909322983
leaf_weight=9.6330671161413175 4.6980265825986871
leaf_count=42 21
internal_value=0
internal_weight=0
internal_count=63
is_linear=0
shrinkage=0.01


Tree=99
num_leaves=2
num_cat=0
split_feature=16
split_gain=3.8048
threshold=1.0000000180025095e-35
decision_type=2
left_child=-1
right_child=-2
leaf_value=-0.0036377762221630979 0.006821077644150437
leaf_weight=9.6289170980453473 4.6876654773950586
leaf_count=42 21
internal_value=0
internal_weight=0
internal_count=63
is_linear=0
shrinkage=0.01


end of trees

feature_importances:
BWg=41
VentDay7_SIMV=24
CRIBII=16
k__Fungi;_p__Chytridiomycota;=8
k__Bacteria;_p__Proteobacteria;=7
GAtotal=6
k__Fungi;_p__Basidiomycota;=4
k__Fungi;=2
k__Fungi;_p__Ascomycota;=2
k__Bacteria;_p__;=1

parameters:
[boosting: gbdt]
[objective: binary]
[metric: l2]
[tree_learner: serial]
[device_type: cpu]
[data: ]
[valid: ]
[num_iterations: 100]
[learning_rate: 0.01]
[num_leaves: 8]
[num_threads: 0]
[deterministic: 0]
[force_col_wise: 0]
[force_row_wise: 0]
[histogram_pool_size: -1]
[max_depth: 3]
[min_data_in_leaf: 21]
[min_sum_hessian_in_leaf: 0.001]
[bagging_fraction: 0.979667]
[pos_bagging_fraction: 1]
[neg_bagging_fraction: 1]
[bagging_freq: 0]
[bagging_seed: 3]
[feature_fraction: 0.3]
[feature_fraction_bynode: 1]
[feature_fraction_seed: 2]
[extra_trees: 0]
[extra_seed: 6]
[early_stopping_round: 0]
[first_metric_only: 0]
[max_delta_step: 0]
[lambda_l1: 0.5]
[lambda_l2: 0.584881]
[linear_lambda: 0]
[min_gain_to_split: 0]
[drop_rate: 0.1]
[max_drop: 50]
[skip_drop: 0.5]
[xgboost_dart_mode: 0]
[uniform_drop: 0]
[drop_seed: 4]
[top_rate: 0.2]
[other_rate: 0.1]
[min_data_per_group: 100]
[max_cat_threshold: 32]
[cat_l2: 10]
[cat_smooth: 10]
[max_cat_to_onehot: 4]
[top_k: 20]
[monotone_constraints: ]
[monotone_constraints_method: basic]
[monotone_penalty: 0]
[feature_contri: ]
[forcedsplits_filename: ]
[refit_decay_rate: 0.9]
[cegb_tradeoff: 1]
[cegb_penalty_split: 0]
[cegb_penalty_feature_lazy: ]
[cegb_penalty_feature_coupled: ]
[path_smooth: 0]
[interaction_constraints: ]
[verbosity: -1]
[saved_feature_importance_type: 0]
[linear_tree: 0]
[max_bin: 20]
[max_bin_by_feature: ]
[min_data_in_bin: 3]
[bin_construct_sample_cnt: 200000]
[data_random_seed: 1]
[is_enable_sparse: 1]
[enable_bundle: 1]
[use_missing: 1]
[zero_as_missing: 0]
[feature_pre_filter: 1]
[pre_partition: 0]
[two_round: 0]
[header: 0]
[label_column: ]
[weight_column: ]
[group_column: ]
[ignore_column: ]
[categorical_feature: ]
[forcedbins_filename: ]
[precise_float_parser: 0]
[objective_seed: 5]
[num_class: 1]
[is_unbalance: 0]
[scale_pos_weight: 1]
[sigmoid: 1]
[boost_from_average: 1]
[reg_sqrt: 0]
[alpha: 0.9]
[fair_c: 1]
[poisson_max_delta_step: 0.7]
[tweedie_variance_power: 1.5]
[lambdarank_truncation_level: 30]
[lambdarank_norm: 1]
[label_gain: ]
[eval_at: ]
[multi_error_top_k: 1]
[auc_mu_weights: ]
[num_machines: 1]
[local_listen_port: 12400]
[time_out: 120]
[machine_list_filename: ]
[machines: ]
[gpu_platform_id: -1]
[gpu_device_id: -1]
[gpu_use_dp: 0]
[num_gpu: 1]

end of parameters

pandas_categorical:[]
