tree
version=v3
num_class=1
num_tree_per_iteration=1
label_index=0
max_feature_idx=87
objective=binary sigmoid:1
feature_names=GAtotal BWg SGA3rd TempC BEmmolL CRIBII Sex_F Race_Black Race_White VentDaySIMV_CPAP VentDaySIMV_Cannula VentDaySIMV_HFV VentDaySIMV_SIMV VentDay7_CPAP VentDay7_Cannula VentDay7_HFV VentDay7_SIMV Race_Asian Unassigned; k__Archaea; k__Fungi; k__Bacteria; k__Fungi;_p__Basidiomycota; k__Bacteria;_p__Armatimonadetes; k__Fungi;_p__Aphelidiomycota; k__Bacteria;_p__Proteobacteria; k__Bacteria;_p__Deferribacteres; k__Fungi;_p__GS19; k__Bacteria;_p__Chloroflexi; k__Bacteria;_p__WS2; k__Fungi;_p__Blastocladiomycota; k__Bacteria;_p__SBR1093; k__Bacteria;_p__Acidobacteria; k__Bacteria;_p__AC1; k__Bacteria;_p__SC4; k__Bacteria;_p__Caldithrix; k__Bacteria;_p__TM7; k__Fungi;_p__GS01; k__Fungi;_p__Monoblepharomycota; k__Fungi;_p__unidentified; k__Bacteria;_p__Planctomycetes; k__Bacteria;_p__; k__Bacteria;_p__WWE1; k__Bacteria;_p__Synergistetes; k__Bacteria;_p__Tenericutes; k__Bacteria;_p__Firmicutes; k__Bacteria;_p__GN04; k__Bacteria;_p__Bacteroidetes; k__Bacteria;_p__Nitrospirae; k__Bacteria;_p__GN02; k__Bacteria;_p__WS3; k__Bacteria;_p__OP8; k__Bacteria;_p__OD1; k__Bacteria;_p__TM6; k__Fungi;_p__Ascomycota; k__Bacteria;_p__NKB19; k__Bacteria;_p__WS4; k__Bacteria;_p__FCPU426; k__Bacteria;_p__KSB3; k__Bacteria;_p__SAR406; k__Fungi;_p__Glomeromycota; k__Bacteria;_p__Cyanobacteria; k__Bacteria;_p__Elusimicrobia; k__Bacteria;_p__GOUTA4; k__Bacteria;_p__BRC1; k__Bacteria;_p__Spirochaetes; k__Bacteria;_p__TPD-58; k__Bacteria;_p__NC10; k__Bacteria;_p__Verrucomicrobia; k__Archaea;_p__Euryarchaeota; k__Bacteria;_p__1Caldithrix2; k__Fungi;_p__Chytridiomycota; k__Bacteria;_p__Gemmatimonadetes; k__Bacteria;_p__SR1; k__Fungi;_p__Entomophthoromycota; k__Bacteria;_p__Fibrobacteres; k__Fungi;_p__Mortierellomycota; k__Bacteria;_p__WS6; k__Bacteria;_p__Fusobacteria; k__Bacteria;_p__Chlorobi; k__Bacteria;_p__1Thermi2; k__Bacteria;_p__Actinobacteria; k__Fungi;_p__Rozellomycota; k__Fungi;_p__Mucoromycota; k__Bacteria;_p__LCP-89; k__Bacteria;_p__Hyd24-12; k__Archaea;_p__Crenarchaeota; k__Bacteria;_p__Chlamydiae;
feature_infos=[23.857142857142858:32.857142857142854] [420:1460] none [35.5:37.799999999999997] [-28:3] [1:15] [0:1] none none none none none [0:1] none none none [0:1] none none none [0:181] [0:331] [0:24] none none [0:111] none none [0:6] none none none [0:6] none none none none none none [0:1] none [0:203] none none none none none none none none none none none none [0:152] none none none none none none none none none none none none none none none none [0:4] none none none none [0:4] none none none none none [0:2] [0:6] none none none none
tree_sizes=451 343 344 347 343 343 342 342 344 343 343 344 451 344 344 454 344 342 343 343 345 344 344 343 432 344 432 342 349 343 344 343 345 431 343 347 342 343 349 343 345 431 344 346 345 341 349 344 345 343 344 344 343 342 451 345 344 344 342 431 344 345 348 345 455 346 345 350 431 345 432 345 454 434 345 345 350 432 431 344 434 350 344 350 455 345 344 432 456 345 432 343 344 432 434 345 345 345 345 350

Tree=0
num_leaves=3
num_cat=0
split_feature=16 41
split_gain=16.0555 3.2723
threshold=1.0000000180025095e-35 80.500000000000014
decision_type=2 2
left_child=1 -1
right_child=-2 -3
leaf_value=0.031462994478235209 0.045176752925670194 0.019463455881431363
leaf_weight=5.2486772686243039 5.2486772686243066 5.2486772686243057
leaf_count=21 21 21
internal_value=0.0317487 0.0246803
internal_weight=0 10.4974
internal_count=63 42
is_linear=0
shrinkage=1


Tree=1
num_leaves=2
num_cat=0
split_feature=54
split_gain=9.1666
threshold=50.500000000000007
decision_type=2
left_child=-1
right_child=-2
leaf_value=-0.0070441618012241818 0.0076933127302669163
leaf_weight=8.2483451813459379 7.497180938720704
leaf_count=33 30
internal_value=0
internal_weight=0
internal_count=63
is_linear=0
shrinkage=0.01


Tree=2
num_leaves=2
num_cat=0
split_feature=20
split_gain=10.0305
threshold=79.000000000000014
decision_type=2
left_child=-1
right_child=-2
leaf_value=-0.0057724039556363883 0.010274949915128798
leaf_weight=10.247993484139441 5.4970167875289926
leaf_count=41 22
internal_value=0
internal_weight=0
internal_count=63
is_linear=0
shrinkage=0.01


Tree=3
num_leaves=2
num_cat=0
split_feature=16
split_gain=15.582
threshold=1.0000000180025095e-35
decision_type=2
left_child=-1
right_child=-2
leaf_value=-0.0069626108706416813 0.013232086247923157
leaf_weight=10.498276382684706 5.2459463924169549
leaf_count=42 21
internal_value=0
internal_weight=0
internal_count=63
is_linear=0
shrinkage=0.01


Tree=4
num_leaves=2
num_cat=0
split_feature=1
split_gain=18.8662
threshold=1115.0000000000002
decision_type=2
left_child=-1
right_child=-2
leaf_value=0.0079182651226537577 -0.014088958412580128
leaf_weight=10.243508487939833 5.4992309361696252
leaf_count=41 22
internal_value=0
internal_weight=0
internal_count=63
is_linear=0
shrinkage=0.01


Tree=5
num_leaves=2
num_cat=0
split_feature=1
split_gain=18.5217
threshold=1115.0000000000002
decision_type=2
left_child=-1
right_child=-2
leaf_value=0.0078447020882723862 -0.013961073669201227
leaf_weight=10.241664379835127 5.4994642138481149
leaf_count=41 22
internal_value=0
internal_weight=0
internal_count=63
is_linear=0
shrinkage=0.01


Tree=6
num_leaves=2
num_cat=0
split_feature=1
split_gain=18.1847
threshold=1115.0000000000002
decision_type=2
left_child=-1
right_child=-2
leaf_value=0.0077720386170876858 -0.013835584273058602
leaf_weight=10.23952144384384 5.4991571456193933
leaf_count=41 22
internal_value=0
internal_weight=0
internal_count=63
is_linear=0
shrinkage=0.01


Tree=7
num_leaves=2
num_cat=0
split_feature=1
split_gain=17.855
threshold=1115.0000000000002
decision_type=2
left_child=-1
right_child=-2
leaf_value=0.0077002572361313405 -0.013712414650526727
leaf_weight=10.237088516354559 5.4983242154121408
leaf_count=41 22
internal_value=0
internal_weight=0
internal_count=63
is_linear=0
shrinkage=0.01


Tree=8
num_leaves=2
num_cat=0
split_feature=20
split_gain=9.51521
threshold=79.000000000000014
decision_type=2
left_child=-1
right_child=-2
leaf_value=-0.0056271282070737482 0.010010406917881234
leaf_weight=10.241943478584288 5.4894110113382348
leaf_count=41 22
internal_value=0
internal_weight=0
internal_count=63
is_linear=0
shrinkage=0.01


Tree=9
num_leaves=2
num_cat=0
split_feature=1
split_gain=17.4738
threshold=1115.0000000000002
decision_type=2
left_child=-1
right_child=-2
leaf_value=0.0076186739181459328 -0.013567813588877462
leaf_weight=10.232980534434317 5.4963218420743951
leaf_count=41 22
internal_value=0
internal_weight=0
internal_count=63
is_linear=0
shrinkage=0.01


Tree=10
num_leaves=2
num_cat=0
split_feature=5
split_gain=20.6629
threshold=7.5000000000000009
decision_type=2
left_child=-1
right_child=-2
leaf_value=-0.013030345297051165 0.009384359105093611
leaf_weight=6.4937315881252298 9.2306002378463727
leaf_count=26 37
internal_value=0
internal_weight=0
internal_count=63
is_linear=0
shrinkage=0.01


Tree=11
num_leaves=2
num_cat=0
split_feature=1
split_gain=16.8633
threshold=1115.0000000000002
decision_type=2
left_child=-1
right_child=-2
leaf_value=0.0074832027145447511 -0.013336885704120352
leaf_weight=10.226323723793028 5.4920421391725549
leaf_count=41 22
internal_value=0
internal_weight=0
internal_count=63
is_linear=0
shrinkage=0.01


Tree=12
num_leaves=3
num_cat=0
split_feature=16 4
split_gain=14.2976 1.0274
threshold=1.0000000180025095e-35 -5.4999999999999991
decision_type=2 8
left_child=1 -1
right_child=-2 -3
leaf_value=-0.0018914069916899357 0.012685706724118492 -0.0099431613774662239
leaf_weight=5.2418918758630753 5.2298077791929254 5.240255728363989
leaf_count=21 21 21
internal_value=0 -0.0066812
internal_weight=0 10.4821
internal_count=63 42
is_linear=0
shrinkage=0.01


Tree=13
num_leaves=2
num_cat=0
split_feature=5
split_gain=19.8426
threshold=7.5000000000000009
decision_type=2
left_child=-1
right_child=-2
leaf_value=-0.012780953254203104 0.0091955700561020363
leaf_weight=6.4867444932460794 9.2199961543083173
leaf_count=26 37
internal_value=0
internal_weight=0
internal_count=63
is_linear=0
shrinkage=0.01


Tree=14
num_leaves=2
num_cat=0
split_feature=1
split_gain=16.1355
threshold=1115.0000000000002
decision_type=2
left_child=-1
right_child=-2
leaf_value=0.0073173519397152168 -0.013061114223042713
leaf_weight=10.214914143085478 5.4839222133159646
leaf_count=41 22
internal_value=0
internal_weight=0
internal_count=63
is_linear=0
shrinkage=0.01


Tree=15
num_leaves=3
num_cat=0
split_feature=16 41
split_gain=13.8063 2.94298
threshold=1.0000000180025095e-35 80.500000000000014
decision_type=2 2
left_child=1 -1
right_child=-2 -3
leaf_value=-0.00011225987505147502 0.012472254107514678 -0.011517898184525437
leaf_weight=5.2373385429382306 5.2198872715234765 5.2335134297609329
leaf_count=21 21 21
internal_value=0 -0.00657299
internal_weight=0 10.4709
internal_count=63 42
is_linear=0
shrinkage=0.01


Tree=16
num_leaves=2
num_cat=0
split_feature=0
split_gain=13.8159
threshold=28.928571428571434
decision_type=2
left_child=-1
right_child=-2
leaf_value=0.0074389722859916699 -0.011010772113538981
leaf_weight=9.4564237445592862 6.2275286763906488
leaf_count=38 25
internal_value=0
internal_weight=0
internal_count=63
is_linear=0
shrinkage=0.01


Tree=17
num_leaves=2
num_cat=0
split_feature=1
split_gain=15.529
threshold=1115.0000000000002
decision_type=2
left_child=-1
right_child=-2
leaf_value=0.0071758336100977418 -0.01283003562494236
leaf_weight=10.202706247568129 5.4743857830762872
leaf_count=41 22
internal_value=0
internal_weight=0
internal_count=63
is_linear=0
shrinkage=0.01


Tree=18
num_leaves=2
num_cat=0
split_feature=1
split_gain=15.2553
threshold=1115.0000000000002
decision_type=2
left_child=-1
right_child=-2
leaf_value=0.0071110258737138122 -0.012724365712619702
leaf_weight=10.19808706641197 5.4695308506488809
leaf_count=41 22
internal_value=0
internal_weight=0
internal_count=63
is_linear=0
shrinkage=0.01


Tree=19
num_leaves=2
num_cat=0
split_feature=5
split_gain=18.2867
threshold=7.5000000000000009
decision_type=2
left_child=-1
right_child=-2
leaf_value=-0.012301912371567744 0.0088272581605517604
leaf_weight=6.4636137336492547 9.193919509649275
leaf_count=26 37
internal_value=0
internal_weight=0
internal_count=63
is_linear=0
shrinkage=0.01


Tree=20
num_leaves=2
num_cat=0
split_feature=20
split_gain=8.60884
threshold=79.000000000000014
decision_type=2
left_child=-1
right_child=-2
leaf_value=-0.0053811787407605071 0.0095323329894903795
leaf_weight=10.19061331450939 5.4554473757743844
leaf_count=41 22
internal_value=0
internal_weight=0
internal_count=63
is_linear=0
shrinkage=0.01


Tree=21
num_leaves=2
num_cat=0
split_feature=1
split_gain=14.6846
threshold=1115.0000000000002
decision_type=2
left_child=-1
right_child=-2
leaf_value=0.0069777510380820366 -0.012500327189559172
leaf_weight=10.184791907668112 5.4570440500974664
leaf_count=41 22
internal_value=0
internal_weight=0
internal_count=63
is_linear=0
shrinkage=0.01


Tree=22
num_leaves=2
num_cat=0
split_feature=1
split_gain=14.4281
threshold=1115.0000000000002
decision_type=2
left_child=-1
right_child=-2
leaf_value=0.0069151575957375269 -0.012399963472045916
leaf_weight=10.179531723260878 5.4509647488594064
leaf_count=41 22
internal_value=0
internal_weight=0
internal_count=63
is_linear=0
shrinkage=0.01


Tree=23
num_leaves=2
num_cat=0
split_feature=1
split_gain=14.1768
threshold=1115.0000000000002
decision_type=2
left_child=-1
right_child=-2
leaf_value=0.0068532517405690352 -0.01230116964297818
leaf_weight=10.174079343676565 5.4445248395204553
leaf_count=41 22
internal_value=0
internal_weight=0
internal_count=63
is_linear=0
shrinkage=0.01


Tree=24
num_leaves=3
num_cat=0
split_feature=16 21
split_gain=12.7657 3.01396
threshold=1.0000000180025095e-35 127.50000000000001
decision_type=2 2
left_child=1 -1
right_child=-2 -3
leaf_value=0 0.012013862370812287 -0.011342656290990363
leaf_weight=5.2145065516233426 5.1890180110931405 5.2026515603065491
leaf_count=21 21 21
internal_value=0 -0.00634695
internal_weight=0 10.4172
internal_count=63 42
is_linear=0
shrinkage=0.01


Tree=25
num_leaves=2
num_cat=0
split_feature=1
split_gain=13.8182
threshold=1115.0000000000002
decision_type=2
left_child=-1
right_child=-2
leaf_value=0.0067638482747139775 -0.012160814510174292
leaf_weight=10.163161709904669 5.4339415729045877
leaf_count=41 22
internal_value=0
internal_weight=0
internal_count=63
is_linear=0
shrinkage=0.01


Tree=26
num_leaves=3
num_cat=0
split_feature=16 21
split_gain=12.4547 2.94852
threshold=1.0000000180025095e-35 127.50000000000001
decision_type=2 2
left_child=1 -1
right_child=-2 -3
leaf_value=0 0.011875000597556522 -0.011219885250952995
leaf_weight=5.2104893624782544 5.1785413324832925 5.1948919892311096
leaf_count=21 21 21
internal_value=0 -0.00627493
internal_weight=0 10.4054
internal_count=63 42
is_linear=0
shrinkage=0.01


Tree=27
num_leaves=2
num_cat=0
split_feature=5
split_gain=16.6917
threshold=7.5000000000000009
decision_type=2
left_child=-1
right_child=-2
leaf_value=-0.011803872905726258 0.0084359985936083119
leaf_weight=6.4213251322507867 9.15267565846443
leaf_count=26 37
internal_value=0
internal_weight=0
internal_count=63
is_linear=0
shrinkage=0.01


Tree=28
num_leaves=2
num_cat=0
split_feature=16
split_gain=12.1395
threshold=1.0000000180025095e-35
decision_type=2
left_child=-1
right_child=-2
leaf_value=-0.0062000110738167618 0.011734539816969662
leaf_weight=10.392449691891668 5.1665977090597162
leaf_count=42 21
internal_value=0
internal_weight=0
internal_count=63
is_linear=0
shrinkage=0.01


Tree=29
num_leaves=2
num_cat=0
split_feature=1
split_gain=13.1497
threshold=1115.0000000000002
decision_type=2
left_child=-1
right_child=-2
leaf_value=0.0065997292509254414 -0.011891783842919692
leaf_weight=10.138490721583365 5.410985693335534
leaf_count=41 22
internal_value=0
internal_weight=0
internal_count=63
is_linear=0
shrinkage=0.01


Tree=30
num_leaves=2
num_cat=0
split_feature=5
split_gain=16.0728
threshold=7.5000000000000009
decision_type=2
left_child=-1
right_child=-2
leaf_value=-0.011602178682100077 0.0082835193646477994
leaf_weight=6.4015360325574884 9.1333955377340299
leaf_count=26 37
internal_value=0
internal_weight=0
internal_count=63
is_linear=0
shrinkage=0.01


Tree=31
num_leaves=2
num_cat=0
split_feature=1
split_gain=12.7079
threshold=1115.0000000000002
decision_type=2
left_child=-1
right_child=-2
leaf_value=0.0064862636760996189 -0.011712353391372806
leaf_weight=10.124227315187452 5.394464537501336
leaf_count=41 22
internal_value=0
internal_weight=0
internal_count=63
is_linear=0
shrinkage=0.01


Tree=32
num_leaves=2
num_cat=0
split_feature=20
split_gain=7.85837
threshold=79.000000000000014
decision_type=2
left_child=-1
right_child=-2
leaf_value=-0.0051745872941731776 0.0091357273297653745
leaf_weight=10.100808992981909 5.402465984225274
leaf_count=41 22
internal_value=0
internal_weight=0
internal_count=63
is_linear=0
shrinkage=0.01


Tree=33
num_leaves=3
num_cat=0
split_feature=16 21
split_gain=11.5816 2.88064
threshold=1.0000000180025095e-35 127.50000000000001
decision_type=2 2
left_child=1 -1
right_child=-2 -3
leaf_value=0 0.01148773788482507 -0.010959059558683102
leaf_weight=5.1911901831626874 5.1418107300996789 5.1643433421850204
leaf_count=21 21 21
internal_value=0 -0.00606492
internal_weight=0 10.3555
internal_count=63 42
is_linear=0
shrinkage=0.01


Tree=34
num_leaves=2
num_cat=0
split_feature=5
split_gain=15.4125
threshold=7.5000000000000009
decision_type=2
left_child=-1
right_child=-2
leaf_value=-0.011386732878375549 0.0081167301345747862
leaf_weight=6.376729130744935 9.1086248457431775
leaf_count=26 37
internal_value=0
internal_weight=0
internal_count=63
is_linear=0
shrinkage=0.01


Tree=35
num_leaves=2
num_cat=0
split_feature=71
split_gain=6.7517
threshold=1.0000000180025095e-35
decision_type=2
left_child=-1
right_child=-2
leaf_value=-0.0061267317795597768 0.006626574200364767
leaf_weight=8.107278034090994 7.3605107516050348
leaf_count=33 30
internal_value=0
internal_weight=0
internal_count=63
is_linear=0
shrinkage=0.01


Tree=36
num_leaves=2
num_cat=0
split_feature=5
split_gain=15.0871
threshold=7.5000000000000009
decision_type=2
left_child=-1
right_child=-2
leaf_value=-0.01127729685733444 0.008033703561981036
leaf_weight=6.3648714721202859 9.0967870503663999
leaf_count=26 37
internal_value=0
internal_weight=0
internal_count=63
is_linear=0
shrinkage=0.01


Tree=37
num_leaves=2
num_cat=0
split_feature=1
split_gain=11.902
threshold=1115.0000000000002
decision_type=2
left_child=-1
right_child=-2
leaf_value=0.0062791054866407408 -0.011379773933553099
leaf_weight=10.086619570851324 5.3568398505449304
leaf_count=41 22
internal_value=0
internal_weight=0
internal_count=63
is_linear=0
shrinkage=0.01


Tree=38
num_leaves=2
num_cat=0
split_feature=16
split_gain=11.0553
threshold=1.0000000180025095e-35
decision_type=2
left_child=-1
right_child=-2
leaf_value=-0.0059403057484606779 0.011247812588076502
leaf_weight=10.312412455677984 5.1141130924224862
leaf_count=42 21
internal_value=0
internal_weight=0
internal_count=63
is_linear=0
shrinkage=0.01


Tree=39
num_leaves=2
num_cat=0
split_feature=1
split_gain=11.6176
threshold=1115.0000000000002
decision_type=2
left_child=-1
right_child=-2
leaf_value=0.0062057226312879398 -0.011259021021193607
leaf_weight=10.072616696357725 5.342077538371087
leaf_count=41 22
internal_value=0
internal_weight=0
internal_count=63
is_linear=0
shrinkage=0.01


Tree=40
num_leaves=2
num_cat=0
split_feature=0
split_gain=10.4638
threshold=28.928571428571434
decision_type=2
left_child=-1
right_child=-2
leaf_value=0.0064930334473216871 -0.0097089316871786027
leaf_weight=9.3046451061964017 6.0926044732332238
leaf_count=38 25
internal_value=0
internal_weight=0
internal_count=63
is_linear=0
shrinkage=0.01


Tree=41
num_leaves=3
num_cat=0
split_feature=16 21
split_gain=10.7254 2.81057
threshold=1.0000000180025095e-35 127.50000000000001
decision_type=2 2
left_child=1 -1
right_child=-2 -3
leaf_value=0 0.011098265577316935 -0.010703005925045923
leaf_weight=5.1641314029693586 5.095486819744111 5.1237009763717651
leaf_count=21 21 21
internal_value=0 -0.00585624
internal_weight=0 10.2878
internal_count=63 42
is_linear=0
shrinkage=0.01


Tree=42
num_leaves=2
num_cat=0
split_feature=1
split_gain=11.2045
threshold=1115.0000000000002
decision_type=2
left_child=-1
right_child=-2
leaf_value=0.0060932019906089529 -0.011086064210491931
leaf_weight=10.050403311848639 5.3189982622861871
leaf_count=41 22
internal_value=0
internal_weight=0
internal_count=63
is_linear=0
shrinkage=0.01


Tree=43
num_leaves=2
num_cat=0
split_feature=4
split_gain=2.90488
threshold=-6.4999999999999991
decision_type=8
left_child=-1
right_child=-2
leaf_value=0.0052115419565025222 -0.0033880628235627903
leaf_weight=5.8460276573896408 9.5052130222320539
leaf_count=24 39
internal_value=0
internal_weight=0
internal_count=63
is_linear=0
shrinkage=0.01


Tree=44
num_leaves=2
num_cat=0
split_feature=20
split_gain=7.15685
threshold=79.000000000000014
decision_type=2
left_child=-1
right_child=-2
leaf_value=-0.0049638041329324234 0.008759432635833073
leaf_weight=10.005467548966406 5.3418643474578866
leaf_count=41 22
internal_value=0
internal_weight=0
internal_count=63
is_linear=0
shrinkage=0.01


Tree=45
num_leaves=2
num_cat=0
split_feature=1
split_gain=10.946
threshold=1115.0000000000002
decision_type=2
left_child=-1
right_child=-2
leaf_value=0.006024544670000246 -0.01097399812809822
leaf_weight=10.036793053150175 5.3031559288501748
leaf_count=41 22
internal_value=0
internal_weight=0
internal_count=63
is_linear=0
shrinkage=0.01


Tree=46
num_leaves=2
num_cat=0
split_feature=16
split_gain=10.3306
threshold=1.0000000180025095e-35
decision_type=2
left_child=-1
right_child=-2
leaf_value=-0.0057572271127034266 0.010916025389253781
leaf_weight=10.250741198658941 5.0706132501363763
leaf_count=42 21
internal_value=0
internal_weight=0
internal_count=63
is_linear=0
shrinkage=0.01


Tree=47
num_leaves=2
num_cat=0
split_feature=1
split_gain=10.6873
threshold=1115.0000000000002
decision_type=2
left_child=-1
right_child=-2
leaf_value=0.0059549734613286763 -0.010860961179092172
leaf_weight=10.021442875266073 5.2866916805505761
leaf_count=41 22
internal_value=0
internal_weight=0
internal_count=63
is_linear=0
shrinkage=0.01


Tree=48
num_leaves=2
num_cat=0
split_feature=20
split_gain=6.91249
threshold=79.000000000000014
decision_type=2
left_child=-1
right_child=-2
leaf_value=-0.004884729783391782 0.0086274183436590487
leaf_weight=9.9708915650844556 5.3182282894849786
leaf_count=41 22
internal_value=0
internal_weight=0
internal_count=63
is_linear=0
shrinkage=0.01


Tree=49
num_leaves=2
num_cat=0
split_feature=1
split_gain=10.4755
threshold=1115.0000000000002
decision_type=2
left_child=-1
right_child=-2
leaf_value=0.005896445548525365 -0.010768786945262255
leaf_weight=10.009186431765555 5.2720849215984353
leaf_count=41 22
internal_value=0
internal_weight=0
internal_count=63
is_linear=0
shrinkage=0.01


Tree=50
num_leaves=2
num_cat=0
split_feature=1
split_gain=10.3004
threshold=1115.0000000000002
decision_type=2
left_child=-1
right_child=-2
leaf_value=0.0058451334291453796 -0.010692804381497389
leaf_weight=10.001256719231604 5.2606661468744287
leaf_count=41 22
internal_value=0
internal_weight=0
internal_count=63
is_linear=0
shrinkage=0.01


Tree=51
num_leaves=2
num_cat=0
split_feature=5
split_gain=12.9624
threshold=7.5000000000000009
decision_type=2
left_child=-1
right_child=-2
leaf_value=-0.010563694134728166 0.0074650408795227186
leaf_weight=6.2468292862176904 8.9954729378223401
leaf_count=26 37
internal_value=0
internal_weight=0
internal_count=63
is_linear=0
shrinkage=0.01


Tree=52
num_leaves=2
num_cat=0
split_feature=1
split_gain=9.96255
threshold=1115.0000000000002
decision_type=2
left_child=-1
right_child=-2
leaf_value=0.005746430656585636 -0.010543984728123217
leaf_weight=9.9829503148794156 5.2373502105474481
leaf_count=41 22
internal_value=0
internal_weight=0
internal_count=63
is_linear=0
shrinkage=0.01


Tree=53
num_leaves=2
num_cat=0
split_feature=1
split_gain=9.79688
threshold=1115.0000000000002
decision_type=2
left_child=-1
right_child=-2
leaf_value=0.0056965812336243872 -0.0104707237876112
leaf_weight=9.9747653156518918 5.2254069596529016
leaf_count=41 22
internal_value=0
internal_weight=0
internal_count=63
is_linear=0
shrinkage=0.01


Tree=54
num_leaves=3
num_cat=0
split_feature=16 1
split_gain=9.6757 4.41592
threshold=1.0000000180025095e-35 1115.0000000000002
decision_type=2 2
left_child=1 -1
right_child=-2 -3
leaf_value=9.8007299789472325e-05 0.010606198375256497 -0.011843211233224687
leaf_weight=5.1933502405881864 5.0212171375751504 4.9652363359928131
leaf_count=21 21 21
internal_value=0 -0.00560014
internal_weight=0 10.1586
internal_count=63 42
is_linear=0
shrinkage=0.01


Tree=55
num_leaves=2
num_cat=0
split_feature=0
split_gain=8.96647
threshold=28.928571428571434
decision_type=2
left_child=-1
right_child=-2
leaf_value=0.0060300820211967188 -0.0090879334144432899
leaf_weight=9.1854506582021695 5.9701053947210321
leaf_count=38 25
internal_value=0
internal_weight=0
internal_count=63
is_linear=0
shrinkage=0.01


Tree=56
num_leaves=2
num_cat=0
split_feature=5
split_gain=12.1125
threshold=7.5000000000000009
decision_type=2
left_child=-1
right_child=-2
leaf_value=-0.010265591230536757 0.0072226951849292866
leaf_weight=6.1888344436883935 8.9502454847097379
leaf_count=26 37
internal_value=0
internal_weight=0
internal_count=63
is_linear=0
shrinkage=0.01


Tree=57
num_leaves=2
num_cat=0
split_feature=1
split_gain=9.22004
threshold=1115.0000000000002
decision_type=2
left_child=-1
right_child=-2
leaf_value=0.0055271190265387838 -0.010207853990872014
leaf_weight=9.9370240718126279 5.1787272989749917
leaf_count=41 22
internal_value=0
internal_weight=0
internal_count=63
is_linear=0
shrinkage=0.01


Tree=58
num_leaves=2
num_cat=0
split_feature=5
split_gain=11.7592
threshold=7.5000000000000009
decision_type=2
left_child=-1
right_child=-2
leaf_value=-0.010139665243781164 0.0071176094336566258
leaf_weight=6.163729965686799 8.930870518088339
leaf_count=26 37
internal_value=0
internal_weight=0
internal_count=63
is_linear=0
shrinkage=0.01


Tree=59
num_leaves=3
num_cat=0
split_feature=16 21
split_gain=9.25586 2.7119
threshold=1.0000000180025095e-35 127.50000000000001
decision_type=2 2
left_child=1 -1
right_child=-2 -3
leaf_value=0 0.010405681503195506 -0.010304203859164082
leaf_weight=5.0791912674903852 4.9846915155649194 5.0068735331296921
leaf_count=21 21 21
internal_value=0 -0.00549767
internal_weight=0 10.0861
internal_count=63 42
is_linear=0
shrinkage=0.01


Tree=60
num_leaves=2
num_cat=0
split_feature=5
split_gain=11.4846
threshold=7.5000000000000009
decision_type=2
left_child=-1
right_child=-2
leaf_value=-0.010039276206274117 0.0070380829884861612
leaf_weight=6.1431062072515497 8.9108046442270261
leaf_count=26 37
internal_value=0
internal_weight=0
internal_count=63
is_linear=0
shrinkage=0.01


Tree=61
num_leaves=2
num_cat=0
split_feature=1
split_gain=8.70589
threshold=1115.0000000000002
decision_type=2
left_child=-1
right_child=-2
leaf_value=0.0053696326493061679 -0.0099702249497404874
leaf_weight=9.8968859463930112 5.1328049302101144
leaf_count=41 22
internal_value=0
internal_weight=0
internal_count=63
is_linear=0
shrinkage=0.01


Tree=62
num_leaves=2
num_cat=0
split_feature=16
split_gain=8.97755
threshold=1.0000000180025095e-35
decision_type=2
left_child=-1
right_child=-2
leaf_value=-0.0054253624957835847 0.010269559455636226
leaf_weight=10.047928258776663 4.959989696741105
leaf_count=42 21
internal_value=0
internal_weight=0
internal_count=63
is_linear=0
shrinkage=0.01


Tree=63
num_leaves=2
num_cat=0
split_feature=1
split_gain=8.50325
threshold=1115.0000000000002
decision_type=2
left_child=-1
right_child=-2
leaf_value=0.0053084346043368027 -0.0098733871615615549
leaf_weight=9.8795031905174238 5.1129347681999215
leaf_count=41 22
internal_value=0
internal_weight=0
internal_count=63
is_linear=0
shrinkage=0.01


Tree=64
num_leaves=3
num_cat=0
split_feature=16 4
split_gain=8.77074 0.474174
threshold=1.0000000180025095e-35 -5.4999999999999991
decision_type=2 8
left_child=1 -1
right_child=-2 -3
leaf_value=-0.0015079152655533702 0.010169306766693737 -0.0078330696903830838
leaf_weight=5.0711959302425385 4.9424955993890771 4.9567512422800046
leaf_count=21 21 21
internal_value=0 -0.00536491
internal_weight=0 10.0279
internal_count=63 42
is_linear=0
shrinkage=0.01


Tree=65
num_leaves=2
num_cat=0
split_feature=20
split_gain=6.17774
threshold=79.000000000000014
decision_type=2
left_child=-1
right_child=-2
leaf_value=-0.0046775167523362754 0.0082277387157229671
leaf_weight=9.7534263879060727 5.1995495855808267
leaf_count=41 22
internal_value=0
internal_weight=0
internal_count=63
is_linear=0
shrinkage=0.01


Tree=66
num_leaves=2
num_cat=0
split_feature=5
split_gain=10.8242
threshold=7.5000000000000009
decision_type=2
left_child=-1
right_child=-2
leaf_value=-0.0097982544563221547 0.0068419569469510061
leaf_weight=6.0847950875759134 8.8590528815984708
leaf_count=26 37
internal_value=0
internal_weight=0
internal_count=63
is_linear=0
shrinkage=0.01


Tree=67
num_leaves=2
num_cat=0
split_feature=71
split_gain=5.24079
threshold=1.0000000180025095e-35
decision_type=2
left_child=-1
right_child=-2
leaf_value=-0.0055094686952027782 0.0059159088525870662
leaf_weight=7.8108862638473511 7.1079068332910538
leaf_count=33 30
internal_value=0
internal_weight=0
internal_count=63
is_linear=0
shrinkage=0.01


Tree=68
num_leaves=3
num_cat=0
split_feature=16 41
split_gain=8.47843 2.11715
threshold=1.0000000180025095e-35 80.500000000000014
decision_type=2 2
left_child=1 -1
right_child=-2 -3
leaf_value=0 0.010024757617359095 -0.0095795711360751185
leaf_weight=5.0567754060029966 4.9153168201446542 4.937851294875145
leaf_count=21 21 21
internal_value=0 -0.0052814
internal_weight=0 9.99463
internal_count=63 42
is_linear=0
shrinkage=0.01


Tree=69
num_leaves=2
num_cat=0
split_feature=1
split_gain=8.03758
threshold=1115.0000000000002
decision_type=2
left_child=-1
right_child=-2
leaf_value=0.0051623898917283959 -0.0096532860504455129
leaf_weight=9.8285102099180204 5.0623109787702569
leaf_count=41 22
internal_value=0
internal_weight=0
internal_count=63
is_linear=0
shrinkage=0.01


Tree=70
num_leaves=3
num_cat=0
split_feature=16 41
split_gain=8.29117 2.07151
threshold=1.0000000180025095e-35 80.500000000000014
decision_type=2 2
left_child=1 -1
right_child=-2 -3
leaf_value=0 0.0099286566456870135 -0.0094898468462059592
leaf_weight=5.0500679016113263 4.897199511528016 4.921112135052681
leaf_count=21 21 21
internal_value=0 -0.00522968
internal_weight=0 9.97118
internal_count=63 42
is_linear=0
shrinkage=0.01


Tree=71
num_leaves=2
num_cat=0
split_feature=1
split_gain=7.84055
threshold=1115.0000000000002
decision_type=2
left_child=-1
right_child=-2
leaf_value=0.0050972290372690732 -0.0095591331905009545
leaf_weight=9.8086055666208249 5.0403235554695138
leaf_count=41 22
internal_value=0
internal_weight=0
internal_count=63
is_linear=0
shrinkage=0.01


Tree=72
num_leaves=3
num_cat=0
split_feature=16 4
split_gain=8.10876 0.432909
threshold=1.0000000180025095e-35 -5.4999999999999991
decision_type=2 8
left_child=1 -1
right_child=-2 -3
leaf_value=-0.0014220855279061628 0.0098342012222398262 -0.007568045783190344
leaf_weight=5.043443500995636 4.8788571059703836 4.9040154963731748
leaf_count=21 21 21
internal_value=0 -0.00517873
internal_weight=0 9.94746
internal_count=63 42
is_linear=0
shrinkage=0.01


Tree=73
num_leaves=3
num_cat=0
split_feature=16 21
split_gain=7.98238 2.59004
threshold=1.0000000180025095e-35 127.50000000000001
decision_type=2 2
left_child=1 -1
right_child=-2 -3
leaf_value=0 0.0097679404338264636 -0.0098815217898782868
leaf_weight=5.0256162583827955 4.8668610900640497 4.9154448211193085
leaf_count=21 21 21
internal_value=0 -0.00513983
internal_weight=0 9.94106
internal_count=63 42
is_linear=0
shrinkage=0.01


Tree=74
num_leaves=2
num_cat=0
split_feature=5
split_gain=10.0521
threshold=7.5000000000000009
decision_type=2
left_child=-1
right_child=-2
leaf_value=-0.0095154010175388538 0.0066035260383675168
leaf_weight=6.0050422698259363 8.7839132547378522
leaf_count=26 37
internal_value=0
internal_weight=0
internal_count=63
is_linear=0
shrinkage=0.01


Tree=75
num_leaves=2
num_cat=0
split_feature=1
split_gain=7.46821
threshold=1115.0000000000002
decision_type=2
left_child=-1
right_child=-2
leaf_value=0.0049739976878037653 -0.0093765372643646039
leaf_weight=9.7664586752653104 4.9966194331645974
leaf_count=41 22
internal_value=0
internal_weight=0
internal_count=63
is_linear=0
shrinkage=0.01


Tree=76
num_leaves=2
num_cat=0
split_feature=16
split_gain=7.74721
threshold=1.0000000180025095e-35
decision_type=2
left_child=-1
right_child=-2
leaf_value=-0.0050735708678692482 0.0096466272849328582
leaf_weight=9.9002072215080243 4.8399719297885904
leaf_count=42 21
internal_value=0
internal_weight=0
internal_count=63
is_linear=0
shrinkage=0.01


Tree=77
num_leaves=3
num_cat=0
split_feature=16 1
split_gain=7.61939 3.49249
threshold=1.0000000180025095e-35 1115.0000000000002
decision_type=2 2
left_child=1 -1
right_child=-2 -3
leaf_value=0 0.0095823577316598747 -0.010752298589077914
leaf_weight=5.1676998883485776 4.8276941180229196 4.7276935428380966
leaf_count=21 21 21
internal_value=0 -0.00502799
internal_weight=0 9.89539
internal_count=63 42
is_linear=0
shrinkage=0.01


Tree=78
num_leaves=3
num_cat=0
split_feature=16 1
split_gain=7.4956 3.44885
threshold=1.0000000180025095e-35 1115.0000000000002
decision_type=2 2
left_child=1 -1
right_child=-2 -3
leaf_value=0 0.0095187436555861666 -0.010688896970551068
leaf_weight=5.1676998883485776 4.8153289854526529 4.7117280215024948
leaf_count=21 21 21
internal_value=0 -0.00498716
internal_weight=0 9.87943
internal_count=63 42
is_linear=0
shrinkage=0.01


Tree=79
num_leaves=2
num_cat=0
split_feature=5
split_gain=9.46864
threshold=7.5000000000000009
decision_type=2
left_child=-1
right_child=-2
leaf_value=-0.0092868921619795892 0.0064239149069902539
leaf_weight=5.9372640103101739 8.728986129164694
leaf_count=26 37
internal_value=0
internal_weight=0
internal_count=63
is_linear=0
shrinkage=0.01


Tree=80
num_leaves=3
num_cat=0
split_feature=16 41
split_gain=7.32041 1.97101
threshold=1.0000000180025095e-35 80.500000000000014
decision_type=2 2
left_child=1 -1
right_child=-2 -3
leaf_value=0 0.0094275433909401726 -0.0091207167736804314
leaf_weight=5.0083765834569913 4.7945490330457696 4.8369177132844925
leaf_count=21 21 21
internal_value=0 -0.00493409
internal_weight=0 9.84529
internal_count=63 42
is_linear=0
shrinkage=0.01


Tree=81
num_leaves=2
num_cat=0
split_feature=71
split_gain=4.64155
threshold=1.0000000180025095e-35
decision_type=2
left_child=-1
right_child=-2
leaf_value=-0.0052403531270489891 0.0056132806781651222
leaf_weight=7.6507428586483002 6.9683392643928528
leaf_count=33 30
internal_value=0
internal_weight=0
internal_count=63
is_linear=0
shrinkage=0.01


Tree=82
num_leaves=2
num_cat=0
split_feature=1
split_gain=6.8731
threshold=1115.0000000000002
decision_type=2
left_child=-1
right_child=-2
leaf_value=0.0047807909382607244 -0.0090684303250936123
leaf_weight=9.6932071447372419 4.9162678271532068
leaf_count=41 22
internal_value=0
internal_weight=0
internal_count=63
is_linear=0
shrinkage=0.01


Tree=83
num_leaves=2
num_cat=0
split_feature=71
split_gain=4.53736
threshold=1.0000000180025095e-35
decision_type=2
left_child=-1
right_child=-2
leaf_value=-0.0051877317719075987 0.0055545556000254773
leaf_weight=7.6335694044828415 6.9526641815900803
leaf_count=33 30
internal_value=0
internal_weight=0
internal_count=63
is_linear=0
shrinkage=0.01


Tree=84
num_leaves=3
num_cat=0
split_feature=16 4
split_gain=7.08873 0.391548
threshold=1.0000000180025095e-35 -5.4999999999999991
decision_type=2 8
left_child=1 -1
right_child=-2 -3
leaf_value=-0.0012397079835425359 0.0093021409008592765 -0.0071546751645079811
leaf_weight=4.9958387166261673 4.7671198546886453 4.8135639578104001
leaf_count=21 21 21
internal_value=0 -0.00486254
internal_weight=0 9.8094
internal_count=63 42
is_linear=0
shrinkage=0.01


Tree=85
num_leaves=2
num_cat=0
split_feature=1
split_gain=6.68526
threshold=1115.0000000000002
decision_type=2
left_child=-1
right_child=-2
leaf_value=0.0047136900974013183 -0.0089725169761765405
leaf_weight=9.6673731356859189 4.8896400779485711
leaf_count=41 22
internal_value=0
internal_weight=0
internal_count=63
is_linear=0
shrinkage=0.01


Tree=86
num_leaves=2
num_cat=0
split_feature=5
split_gain=8.89924
threshold=7.5000000000000009
decision_type=2
left_child=-1
right_child=-2
leaf_value=-0.0090662116810737298 0.0062345998559965622
leaf_weight=5.866833060979844 8.6668642312288267
leaf_count=26 37
internal_value=0
internal_weight=0
internal_count=63
is_linear=0
shrinkage=0.01


Tree=87
num_leaves=3
num_cat=0
split_feature=16 1
split_gain=6.88817 3.15309
threshold=1.0000000180025095e-35 1115.0000000000002
decision_type=2 2
left_child=1 -1
right_child=-2 -3
leaf_value=0 0.0091906323126727009 -0.010327902666672254
leaf_weight=5.1548794358968717 4.7392331361770639 4.6127673387527466
leaf_count=21 21 21
internal_value=0 -0.00480582
internal_weight=0 9.76765
internal_count=63 42
is_linear=0
shrinkage=0.01


Tree=88
num_leaves=3
num_cat=0
split_feature=16 4
split_gain=6.77748 0.364351
threshold=1.0000000180025095e-35 -5.4999999999999991
decision_type=2 8
left_child=1 -1
right_child=-2 -3
leaf_value=-0.0012073507773724601 0.0091309123004058631 -0.0070084758175492515
leaf_weight=4.9764750897884369 4.7264172881841668 4.7746749669313413
leaf_count=21 21 21
internal_value=0 -0.00476748
internal_weight=0 9.75115
internal_count=63 42
is_linear=0
shrinkage=0.01


Tree=89
num_leaves=2
num_cat=0
split_feature=1
split_gain=6.31814
threshold=1115.0000000000002
decision_type=2
left_child=-1
right_child=-2
leaf_value=0.0045817463780110828 -0.0087762087305832768
leaf_weight=9.6213488131761533 4.8364451527595529
leaf_count=41 22
internal_value=0
internal_weight=0
internal_count=63
is_linear=0
shrinkage=0.01


Tree=90
num_leaves=3
num_cat=0
split_feature=16 41
split_gain=6.63429 1.89394
threshold=1.0000000180025095e-35 80.500000000000014
decision_type=2 2
left_child=1 -1
right_child=-2 -3
leaf_value=0 0.0090488565093172421 -0.0088590445312643051
leaf_weight=4.96692146360874 4.7067696899175653 4.7606659233570099
leaf_count=21 21 21
internal_value=0 -0.00472404
internal_weight=0 9.72759
internal_count=63 42
is_linear=0
shrinkage=0.01


Tree=91
num_leaves=2
num_cat=0
split_feature=5
split_gain=8.42598
threshold=7.5000000000000009
decision_type=2
left_child=-1
right_child=-2
leaf_value=-0.0088760947551411486 0.00607501139147602
leaf_weight=5.8027302920818338 8.6101581007242185
leaf_count=26 37
internal_value=0
internal_weight=0
internal_count=63
is_linear=0
shrinkage=0.01


Tree=92
num_leaves=2
num_cat=0
split_feature=1
split_gain=6.06705
threshold=1115.0000000000002
decision_type=2
left_child=-1
right_child=-2
leaf_value=0.0044885134750803895 -0.0086391362554905909
leaf_weight=9.5876451283693296 4.798168197274209
leaf_count=41 22
internal_value=0
internal_weight=0
internal_count=63
is_linear=0
shrinkage=0.01


Tree=93
num_leaves=3
num_cat=0
split_feature=16 1
split_gain=6.44651 2.94808
threshold=1.0000000180025095e-35 1115.0000000000002
decision_type=2 2
left_child=1 -1
right_child=-2 -3
leaf_value=0 0.0089426816939599113 -0.010063088511433149
leaf_weight=5.1481250375509244 4.6785561591386804 4.5356476157903671
leaf_count=21 21 21
internal_value=0 -0.00466769
internal_weight=0 9.68377
internal_count=63 42
is_linear=0
shrinkage=0.01


Tree=94
num_leaves=3
num_cat=0
split_feature=16 21
split_gain=6.34363 2.47412
threshold=1.0000000180025095e-35 127.50000000000001
decision_type=2 2
left_child=1 -1
right_child=-2 -3
leaf_value=0 0.0088852919411973146 -0.0093601378186132494
leaf_weight=4.9186131507158262 4.6655301302671441 4.7484337240457535
leaf_count=21 21 21
internal_value=0 -0.00463086
internal_weight=0 9.66705
internal_count=63 42
is_linear=0
shrinkage=0.01


Tree=95
num_leaves=2
num_cat=0
split_feature=1
split_gain=5.83149
threshold=1115.0000000000002
decision_type=2
left_child=-1
right_child=-2
leaf_value=0.0044039120243799714 -0.0085054274691865623
leaf_weight=9.5537681579589826 4.7579924762249002
leaf_count=41 22
internal_value=0
internal_weight=0
internal_count=63
is_linear=0
shrinkage=0.01


Tree=96
num_leaves=2
num_cat=0
split_feature=1
split_gain=5.73822
threshold=1115.0000000000002
decision_type=2
left_child=-1
right_child=-2
leaf_value=0.0043663201121731596 -0.0084526819751342529
leaf_weight=9.5447422564029676 4.7435283660888681
leaf_count=41 22
internal_value=0
internal_weight=0
internal_count=63
is_linear=0
shrinkage=0.01


Tree=97
num_leaves=2
num_cat=0
split_feature=0
split_gain=5.81979
threshold=28.928571428571434
decision_type=2
left_child=-1
right_child=-2
leaf_value=0.0049207409607249196 -0.0076332153503056808
leaf_weight=8.7339935898780805 5.5307794958353051
leaf_count=38 25
internal_value=0
internal_weight=0
internal_count=63
is_linear=0
shrinkage=0.01


Tree=98
num_leaves=2
num_cat=0
split_feature=20
split_gain=4.94265
threshold=79.000000000000014
decision_type=2
left_child=-1
right_child=-2
leaf_value=-0.004289297174874032 0.0075160690072461423
leaf_weight=9.2999378591775876 4.9452362805604944
leaf_count=41 22
internal_value=0
internal_weight=0
internal_count=63
is_linear=0
shrinkage=0.01


Tree=99
num_leaves=2
num_cat=0
split_feature=82
split_gain=1.85572
threshold=1.0000000180025095e-35
decision_type=2
left_child=-1
right_child=-2
leaf_value=-0.0030832445242257541 0.0039213919067014151
leaf_weight=8.1540810167789441 6.0805109292268762
leaf_count=36 27
internal_value=0
internal_weight=0
internal_count=63
is_linear=0
shrinkage=0.01


end of trees

feature_importances:
BWg=41
VentDay7_SIMV=29
CRIBII=16
k__Fungi;=8
k__Bacteria;=7
BEmmolL=6
k__Bacteria;_p__;=6
GAtotal=4
k__Fungi;_p__Chytridiomycota;=4
k__Fungi;_p__Ascomycota;=1
k__Fungi;_p__Rozellomycota;=1

parameters:
[boosting: gbdt]
[objective: binary]
[metric: l2]
[tree_learner: serial]
[device_type: cpu]
[data: ]
[valid: ]
[num_iterations: 100]
[learning_rate: 0.01]
[num_leaves: 8]
[num_threads: 0]
[deterministic: 0]
[force_col_wise: 0]
[force_row_wise: 0]
[histogram_pool_size: -1]
[max_depth: 3]
[min_data_in_leaf: 21]
[min_sum_hessian_in_leaf: 0.001]
[bagging_fraction: 0.979667]
[pos_bagging_fraction: 1]
[neg_bagging_fraction: 1]
[bagging_freq: 0]
[bagging_seed: 3]
[feature_fraction: 0.3]
[feature_fraction_bynode: 1]
[feature_fraction_seed: 2]
[extra_trees: 0]
[extra_seed: 6]
[early_stopping_round: 0]
[first_metric_only: 0]
[max_delta_step: 0]
[lambda_l1: 0.5]
[lambda_l2: 0.584881]
[linear_lambda: 0]
[min_gain_to_split: 0]
[drop_rate: 0.1]
[max_drop: 50]
[skip_drop: 0.5]
[xgboost_dart_mode: 0]
[uniform_drop: 0]
[drop_seed: 4]
[top_rate: 0.2]
[other_rate: 0.1]
[min_data_per_group: 100]
[max_cat_threshold: 32]
[cat_l2: 10]
[cat_smooth: 10]
[max_cat_to_onehot: 4]
[top_k: 20]
[monotone_constraints: ]
[monotone_constraints_method: basic]
[monotone_penalty: 0]
[feature_contri: ]
[forcedsplits_filename: ]
[refit_decay_rate: 0.9]
[cegb_tradeoff: 1]
[cegb_penalty_split: 0]
[cegb_penalty_feature_lazy: ]
[cegb_penalty_feature_coupled: ]
[path_smooth: 0]
[interaction_constraints: ]
[verbosity: -1]
[saved_feature_importance_type: 0]
[linear_tree: 0]
[max_bin: 20]
[max_bin_by_feature: ]
[min_data_in_bin: 3]
[bin_construct_sample_cnt: 200000]
[data_random_seed: 1]
[is_enable_sparse: 1]
[enable_bundle: 1]
[use_missing: 1]
[zero_as_missing: 0]
[feature_pre_filter: 1]
[pre_partition: 0]
[two_round: 0]
[header: 0]
[label_column: ]
[weight_column: ]
[group_column: ]
[ignore_column: ]
[categorical_feature: ]
[forcedbins_filename: ]
[precise_float_parser: 0]
[objective_seed: 5]
[num_class: 1]
[is_unbalance: 0]
[scale_pos_weight: 1]
[sigmoid: 1]
[boost_from_average: 1]
[reg_sqrt: 0]
[alpha: 0.9]
[fair_c: 1]
[poisson_max_delta_step: 0.7]
[tweedie_variance_power: 1.5]
[lambdarank_truncation_level: 30]
[lambdarank_norm: 1]
[label_gain: ]
[eval_at: ]
[multi_error_top_k: 1]
[auc_mu_weights: ]
[num_machines: 1]
[local_listen_port: 12400]
[time_out: 120]
[machine_list_filename: ]
[machines: ]
[gpu_platform_id: -1]
[gpu_device_id: -1]
[gpu_use_dp: 0]
[num_gpu: 1]

end of parameters

pandas_categorical:[]
